digraph Tree {
node [shape=box, style="rounded", color="black", fontname=helvetica] ;
edge [fontname=helvetica] ;
0 [label="MVA Norm <= -1.4\nmse = 0.0\nsamples = 318\nvalue = 0.0"] ;
1 [label="mse = 0.0\nsamples = 1\nvalue = -0.2"] ;
0 -> 1 [labeldistance=2.5, labelangle=45, headlabel="True"] ;
2 [label="Mom_05 <= 0.0\nmse = 0.0\nsamples = 317\nvalue = 0.0"] ;
0 -> 2 [labeldistance=2.5, labelangle=-45, headlabel="False"] ;
3 [label="Mom_20 <= -0.3\nmse = 0.0\nsamples = 234\nvalue = 0.0"] ;
2 -> 3 ;
4 [label="mse = 0.0\nsamples = 1\nvalue = 0.2"] ;
3 -> 4 ;
5 [label="Mom_01 <= 0.0\nmse = 0.0\nsamples = 233\nvalue = 0.0"] ;
3 -> 5 ;
6 [label="Mom_20 <= -0.2\nmse = 0.0\nsamples = 231\nvalue = 0.0"] ;
5 -> 6 ;
7 [label="Mom_01 <= 0.0\nmse = 0.0\nsamples = 6\nvalue = -0.0"] ;
6 -> 7 ;
8 [label="Mom_10 <= -0.2\nmse = 0.0\nsamples = 5\nvalue = -0.0"] ;
7 -> 8 ;
9 [label="mse = 0.0\nsamples = 1\nvalue = 0.0"] ;
8 -> 9 ;
10 [label="Mom_20 <= -0.2\nmse = 0.0\nsamples = 4\nvalue = -0.0"] ;
8 -> 10 ;
11 [label="MVA Norm <= -0.9\nmse = 0.0\nsamples = 2\nvalue = -0.0"] ;
10 -> 11 ;
12 [label="mse = 0.0\nsamples = 1\nvalue = -0.0"] ;
11 -> 12 ;
13 [label="mse = -0.0\nsamples = 1\nvalue = -0.0"] ;
11 -> 13 ;
14 [label="Mom_10 <= -0.2\nmse = 0.0\nsamples = 2\nvalue = -0.1"] ;
10 -> 14 ;
15 [label="mse = 0.0\nsamples = 1\nvalue = -0.1"] ;
14 -> 15 ;
16 [label="mse = -0.0\nsamples = 1\nvalue = -0.1"] ;
14 -> 16 ;
17 [label="mse = -0.0\nsamples = 1\nvalue = -0.1"] ;
7 -> 17 ;
18 [label="Mom_01 <= -0.0\nmse = 0.0\nsamples = 225\nvalue = 0.0"] ;
6 -> 18 ;
19 [label="Mom_20 <= -0.1\nmse = 0.0\nsamples = 3\nvalue = 0.1"] ;
18 -> 19 ;
20 [label="Mom_20 <= -0.1\nmse = 0.0\nsamples = 2\nvalue = 0.1"] ;
19 -> 20 ;
21 [label="mse = 0.0\nsamples = 1\nvalue = 0.1"] ;
20 -> 21 ;
22 [label="mse = -0.0\nsamples = 1\nvalue = 0.1"] ;
20 -> 22 ;
23 [label="mse = 0.0\nsamples = 1\nvalue = 0.1"] ;
19 -> 23 ;
24 [label="Mom_01 <= -0.0\nmse = 0.0\nsamples = 222\nvalue = 0.0"] ;
18 -> 24 ;
25 [label="Mom_10 <= -0.1\nmse = 0.0\nsamples = 8\nvalue = -0.0"] ;
24 -> 25 ;
26 [label="MVA Norm <= -0.9\nmse = 0.0\nsamples = 2\nvalue = 0.0"] ;
25 -> 26 ;
27 [label="mse = 0.0\nsamples = 1\nvalue = 0.0"] ;
26 -> 27 ;
28 [label="mse = -0.0\nsamples = 1\nvalue = 0.0"] ;
26 -> 28 ;
29 [label="Mom_20 <= 0.0\nmse = 0.0\nsamples = 6\nvalue = -0.0"] ;
25 -> 29 ;
30 [label="Mom_05 <= -0.0\nmse = 0.0\nsamples = 5\nvalue = -0.1"] ;
29 -> 30 ;
31 [label="Mom_01 <= -0.0\nmse = 0.0\nsamples = 3\nvalue = -0.0"] ;
30 -> 31 ;
32 [label="Mom_05 <= -0.1\nmse = 0.0\nsamples = 2\nvalue = -0.0"] ;
31 -> 32 ;
33 [label="mse = 0.0\nsamples = 1\nvalue = -0.0"] ;
32 -> 33 ;
34 [label="mse = -0.0\nsamples = 1\nvalue = -0.0"] ;
32 -> 34 ;
35 [label="mse = 0.0\nsamples = 1\nvalue = -0.1"] ;
31 -> 35 ;
36 [label="Mom_01 <= -0.0\nmse = 0.0\nsamples = 2\nvalue = -0.1"] ;
30 -> 36 ;
37 [label="mse = 0.0\nsamples = 1\nvalue = -0.1"] ;
36 -> 37 ;
38 [label="mse = -0.0\nsamples = 1\nvalue = -0.1"] ;
36 -> 38 ;
39 [label="mse = 0.0\nsamples = 1\nvalue = 0.1"] ;
29 -> 39 ;
40 [label="Mom_05 <= -0.0\nmse = 0.0\nsamples = 214\nvalue = 0.0"] ;
24 -> 40 ;
41 [label="Mom_10 <= 0.1\nmse = 0.0\nsamples = 26\nvalue = 0.0"] ;
40 -> 41 ;
42 [label="Mom_10 <= -0.0\nmse = 0.0\nsamples = 25\nvalue = 0.0"] ;
41 -> 42 ;
43 [label="Mom_05 <= -0.1\nmse = 0.0\nsamples = 20\nvalue = 0.0"] ;
42 -> 43 ;
44 [label="mse = 0.0\nsamples = 1\nvalue = -0.0"] ;
43 -> 44 ;
45 [label="Mom_01 <= -0.0\nmse = 0.0\nsamples = 19\nvalue = 0.0"] ;
43 -> 45 ;
46 [label="mse = 0.0\nsamples = 1\nvalue = 0.0"] ;
45 -> 46 ;
47 [label="Mom_05 <= -0.1\nmse = 0.0\nsamples = 18\nvalue = 0.0"] ;
45 -> 47 ;
48 [label="Mom_10 <= -0.0\nmse = 0.0\nsamples = 9\nvalue = 0.0"] ;
47 -> 48 ;
49 [label="MVA Norm <= -1.2\nmse = 0.0\nsamples = 6\nvalue = 0.0"] ;
48 -> 49 ;
50 [label="mse = 0.0\nsamples = 1\nvalue = 0.0"] ;
49 -> 50 ;
51 [label="Mom_05 <= -0.1\nmse = 0.0\nsamples = 5\nvalue = 0.0"] ;
49 -> 51 ;
52 [label="Mom_01 <= 0.0\nmse = 0.0\nsamples = 2\nvalue = 0.0"] ;
51 -> 52 ;
53 [label="mse = 0.0\nsamples = 1\nvalue = 0.0"] ;
52 -> 53 ;
54 [label="mse = 0.0\nsamples = 1\nvalue = 0.0"] ;
52 -> 54 ;
55 [label="Mom_01 <= -0.0\nmse = 0.0\nsamples = 3\nvalue = 0.0"] ;
51 -> 55 ;
56 [label="mse = 0.0\nsamples = 1\nvalue = 0.0"] ;
55 -> 56 ;
57 [label="MVA Norm <= -0.8\nmse = 0.0\nsamples = 2\nvalue = 0.0"] ;
55 -> 57 ;
58 [label="mse = 0.0\nsamples = 1\nvalue = 0.0"] ;
57 -> 58 ;
59 [label="mse = 0.0\nsamples = 1\nvalue = 0.0"] ;
57 -> 59 ;
60 [label="Mom_01 <= -0.0\nmse = 0.0\nsamples = 3\nvalue = 0.1"] ;
48 -> 60 ;
61 [label="Mom_01 <= -0.0\nmse = 0.0\nsamples = 2\nvalue = 0.0"] ;
60 -> 61 ;
62 [label="mse = 0.0\nsamples = 1\nvalue = 0.1"] ;
61 -> 62 ;
63 [label="mse = 0.0\nsamples = 1\nvalue = 0.0"] ;
61 -> 63 ;
64 [label="mse = -0.0\nsamples = 1\nvalue = 0.1"] ;
60 -> 64 ;
65 [label="Mom_01 <= -0.0\nmse = 0.0\nsamples = 9\nvalue = 0.0"] ;
47 -> 65 ;
66 [label="Mom_10 <= -0.0\nmse = 0.0\nsamples = 5\nvalue = 0.0"] ;
65 -> 66 ;
67 [label="Mom_10 <= -0.1\nmse = 0.0\nsamples = 4\nvalue = 0.0"] ;
66 -> 67 ;
68 [label="mse = 0.0\nsamples = 1\nvalue = 0.0"] ;
67 -> 68 ;
69 [label="Mom_20 <= -0.1\nmse = 0.0\nsamples = 3\nvalue = 0.0"] ;
67 -> 69 ;
70 [label="mse = 0.0\nsamples = 1\nvalue = 0.0"] ;
69 -> 70 ;
71 [label="Mom_10 <= -0.0\nmse = 0.0\nsamples = 2\nvalue = 0.0"] ;
69 -> 71 ;
72 [label="mse = 0.0\nsamples = 1\nvalue = 0.0"] ;
71 -> 72 ;
73 [label="mse = 0.0\nsamples = 1\nvalue = 0.0"] ;
71 -> 73 ;
74 [label="mse = -0.0\nsamples = 1\nvalue = 0.0"] ;
66 -> 74 ;
75 [label="MVA Norm <= -0.8\nmse = 0.0\nsamples = 4\nvalue = 0.0"] ;
65 -> 75 ;
76 [label="Mom_20 <= -0.1\nmse = 0.0\nsamples = 2\nvalue = 0.0"] ;
75 -> 76 ;
77 [label="mse = 0.0\nsamples = 1\nvalue = 0.0"] ;
76 -> 77 ;
78 [label="mse = 0.0\nsamples = 1\nvalue = 0.0"] ;
76 -> 78 ;
79 [label="Mom_05 <= -0.0\nmse = 0.0\nsamples = 2\nvalue = 0.0"] ;
75 -> 79 ;
80 [label="mse = 0.0\nsamples = 1\nvalue = 0.0"] ;
79 -> 80 ;
81 [label="mse = 0.0\nsamples = 1\nvalue = 0.0"] ;
79 -> 81 ;
82 [label="Mom_01 <= 0.0\nmse = 0.0\nsamples = 5\nvalue = 0.1"] ;
42 -> 82 ;
83 [label="Mom_01 <= -0.0\nmse = 0.0\nsamples = 3\nvalue = 0.1"] ;
82 -> 83 ;
84 [label="MVA Norm <= -0.5\nmse = 0.0\nsamples = 2\nvalue = 0.1"] ;
83 -> 84 ;
85 [label="mse = 0.0\nsamples = 1\nvalue = 0.1"] ;
84 -> 85 ;
86 [label="mse = 0.0\nsamples = 1\nvalue = 0.1"] ;
84 -> 86 ;
87 [label="mse = 0.0\nsamples = 1\nvalue = 0.1"] ;
83 -> 87 ;
88 [label="Mom_10 <= -0.0\nmse = 0.0\nsamples = 2\nvalue = 0.1"] ;
82 -> 88 ;
89 [label="mse = 0.0\nsamples = 1\nvalue = 0.0"] ;
88 -> 89 ;
90 [label="mse = 0.0\nsamples = 1\nvalue = 0.1"] ;
88 -> 90 ;
91 [label="mse = -0.0\nsamples = 1\nvalue = -0.1"] ;
41 -> 91 ;
92 [label="Mom_10 <= -0.0\nmse = 0.0\nsamples = 188\nvalue = 0.0"] ;
40 -> 92 ;
93 [label="Mom_01 <= 0.0\nmse = 0.0\nsamples = 43\nvalue = -0.0"] ;
92 -> 93 ;
94 [label="Mom_05 <= -0.0\nmse = 0.0\nsamples = 29\nvalue = 0.0"] ;
93 -> 94 ;
95 [label="Mom_05 <= -0.0\nmse = 0.0\nsamples = 25\nvalue = 0.0"] ;
94 -> 95 ;
96 [label="Mom_01 <= -0.0\nmse = 0.0\nsamples = 23\nvalue = 0.0"] ;
95 -> 96 ;
97 [label="Mom_10 <= -0.0\nmse = 0.0\nsamples = 2\nvalue = -0.0"] ;
96 -> 97 ;
98 [label="mse = 0.0\nsamples = 1\nvalue = -0.0"] ;
97 -> 98 ;
99 [label="mse = 0.0\nsamples = 1\nvalue = -0.0"] ;
97 -> 99 ;
100 [label="Mom_10 <= -0.0\nmse = 0.0\nsamples = 21\nvalue = 0.0"] ;
96 -> 100 ;
101 [label="Mom_10 <= -0.0\nmse = 0.0\nsamples = 19\nvalue = 0.0"] ;
100 -> 101 ;
102 [label="Mom_20 <= -0.1\nmse = 0.0\nsamples = 11\nvalue = 0.0"] ;
101 -> 102 ;
103 [label="MVA Norm <= -0.8\nmse = 0.0\nsamples = 3\nvalue = 0.0"] ;
102 -> 103 ;
104 [label="Mom_10 <= -0.1\nmse = 0.0\nsamples = 2\nvalue = 0.0"] ;
103 -> 104 ;
105 [label="mse = 0.0\nsamples = 1\nvalue = 0.0"] ;
104 -> 105 ;
106 [label="mse = 0.0\nsamples = 1\nvalue = 0.0"] ;
104 -> 106 ;
107 [label="mse = -0.0\nsamples = 1\nvalue = 0.0"] ;
103 -> 107 ;
108 [label="MVA Norm <= -0.8\nmse = 0.0\nsamples = 8\nvalue = 0.0"] ;
102 -> 108 ;
109 [label="Mom_01 <= 0.0\nmse = 0.0\nsamples = 4\nvalue = 0.0"] ;
108 -> 109 ;
110 [label="Mom_10 <= -0.0\nmse = 0.0\nsamples = 3\nvalue = 0.0"] ;
109 -> 110 ;
111 [label="mse = 0.0\nsamples = 2\nvalue = 0.0"] ;
110 -> 111 ;
112 [label="mse = -0.0\nsamples = 1\nvalue = 0.0"] ;
110 -> 112 ;
113 [label="mse = -0.0\nsamples = 1\nvalue = 0.0"] ;
109 -> 113 ;
114 [label="Mom_10 <= -0.0\nmse = 0.0\nsamples = 4\nvalue = 0.0"] ;
108 -> 114 ;
115 [label="mse = 0.0\nsamples = 2\nvalue = 0.0"] ;
114 -> 115 ;
116 [label="Mom_05 <= -0.0\nmse = 0.0\nsamples = 2\nvalue = 0.0"] ;
114 -> 116 ;
117 [label="mse = 0.0\nsamples = 1\nvalue = -0.0"] ;
116 -> 117 ;
118 [label="mse = 0.0\nsamples = 1\nvalue = 0.0"] ;
116 -> 118 ;
119 [label="Mom_10 <= -0.0\nmse = 0.0\nsamples = 8\nvalue = 0.0"] ;
101 -> 119 ;
120 [label="Mom_05 <= -0.0\nmse = 0.0\nsamples = 2\nvalue = 0.0"] ;
119 -> 120 ;
121 [label="mse = 0.0\nsamples = 1\nvalue = 0.0"] ;
120 -> 121 ;
122 [label="mse = -0.0\nsamples = 1\nvalue = 0.0"] ;
120 -> 122 ;
123 [label="MVA Norm <= -0.4\nmse = 0.0\nsamples = 6\nvalue = 0.0"] ;
119 -> 123 ;
124 [label="Mom_01 <= -0.0\nmse = 0.0\nsamples = 4\nvalue = 0.0"] ;
123 -> 124 ;
125 [label="mse = 0.0\nsamples = 1\nvalue = 0.0"] ;
124 -> 125 ;
126 [label="Mom_05 <= -0.0\nmse = 0.0\nsamples = 3\nvalue = 0.0"] ;
124 -> 126 ;
127 [label="Mom_20 <= 0.0\nmse = 0.0\nsamples = 2\nvalue = 0.0"] ;
126 -> 127 ;
128 [label="mse = 0.0\nsamples = 1\nvalue = 0.0"] ;
127 -> 128 ;
129 [label="mse = -0.0\nsamples = 1\nvalue = 0.0"] ;
127 -> 129 ;
130 [label="mse = 0.0\nsamples = 1\nvalue = 0.0"] ;
126 -> 130 ;
131 [label="mse = 0.0\nsamples = 2\nvalue = 0.0"] ;
123 -> 131 ;
132 [label="Mom_05 <= -0.0\nmse = 0.0\nsamples = 2\nvalue = -0.0"] ;
100 -> 132 ;
133 [label="mse = 0.0\nsamples = 1\nvalue = -0.0"] ;
132 -> 133 ;
134 [label="mse = 0.0\nsamples = 1\nvalue = -0.0"] ;
132 -> 134 ;
135 [label="Mom_10 <= -0.0\nmse = 0.0\nsamples = 2\nvalue = -0.0"] ;
95 -> 135 ;
136 [label="mse = 0.0\nsamples = 1\nvalue = -0.0"] ;
135 -> 136 ;
137 [label="mse = 0.0\nsamples = 1\nvalue = -0.0"] ;
135 -> 137 ;
138 [label="Mom_05 <= 0.0\nmse = 0.0\nsamples = 4\nvalue = 0.0"] ;
94 -> 138 ;
139 [label="Mom_10 <= -0.0\nmse = 0.0\nsamples = 2\nvalue = 0.1"] ;
138 -> 139 ;
140 [label="mse = 0.0\nsamples = 1\nvalue = 0.1"] ;
139 -> 140 ;
141 [label="mse = 0.0\nsamples = 1\nvalue = 0.0"] ;
139 -> 141 ;
142 [label="Mom_10 <= -0.0\nmse = 0.0\nsamples = 2\nvalue = 0.0"] ;
138 -> 142 ;
143 [label="mse = 0.0\nsamples = 1\nvalue = 0.0"] ;
142 -> 143 ;
144 [label="mse = -0.0\nsamples = 1\nvalue = 0.0"] ;
142 -> 144 ;
145 [label="Mom_05 <= -0.0\nmse = 0.0\nsamples = 14\nvalue = -0.0"] ;
93 -> 145 ;
146 [label="Mom_05 <= -0.0\nmse = 0.0\nsamples = 3\nvalue = 0.0"] ;
145 -> 146 ;
147 [label="Mom_20 <= -0.1\nmse = 0.0\nsamples = 2\nvalue = 0.0"] ;
146 -> 147 ;
148 [label="mse = 0.0\nsamples = 1\nvalue = 0.0"] ;
147 -> 148 ;
149 [label="mse = 0.0\nsamples = 1\nvalue = 0.0"] ;
147 -> 149 ;
150 [label="mse = 0.0\nsamples = 1\nvalue = 0.1"] ;
146 -> 150 ;
151 [label="Mom_20 <= 0.0\nmse = 0.0\nsamples = 11\nvalue = -0.0"] ;
145 -> 151 ;
152 [label="Mom_20 <= -0.1\nmse = 0.0\nsamples = 8\nvalue = -0.0"] ;
151 -> 152 ;
153 [label="mse = 0.0\nsamples = 1\nvalue = -0.0"] ;
152 -> 153 ;
154 [label="Mom_20 <= -0.1\nmse = 0.0\nsamples = 7\nvalue = -0.0"] ;
152 -> 154 ;
155 [label="mse = 0.0\nsamples = 1\nvalue = -0.1"] ;
154 -> 155 ;
156 [label="Mom_10 <= -0.0\nmse = 0.0\nsamples = 6\nvalue = -0.0"] ;
154 -> 156 ;
157 [label="Mom_20 <= 0.0\nmse = 0.0\nsamples = 4\nvalue = -0.0"] ;
156 -> 157 ;
158 [label="Mom_10 <= -0.0\nmse = 0.0\nsamples = 3\nvalue = -0.0"] ;
157 -> 158 ;
159 [label="mse = 0.0\nsamples = 1\nvalue = -0.0"] ;
158 -> 159 ;
160 [label="MVA Norm <= -0.4\nmse = 0.0\nsamples = 2\nvalue = -0.0"] ;
158 -> 160 ;
161 [label="mse = 0.0\nsamples = 1\nvalue = -0.0"] ;
160 -> 161 ;
162 [label="mse = -0.0\nsamples = 1\nvalue = -0.0"] ;
160 -> 162 ;
163 [label="mse = 0.0\nsamples = 1\nvalue = -0.0"] ;
157 -> 163 ;
164 [label="MVA Norm <= -0.6\nmse = 0.0\nsamples = 2\nvalue = -0.0"] ;
156 -> 164 ;
165 [label="mse = 0.0\nsamples = 1\nvalue = -0.0"] ;
164 -> 165 ;
166 [label="mse = 0.0\nsamples = 1\nvalue = -0.1"] ;
164 -> 166 ;
167 [label="MVA Norm <= -0.0\nmse = 0.0\nsamples = 3\nvalue = 0.0"] ;
151 -> 167 ;
168 [label="Mom_10 <= -0.0\nmse = 0.0\nsamples = 2\nvalue = 0.0"] ;
167 -> 168 ;
169 [label="mse = 0.0\nsamples = 1\nvalue = -0.0"] ;
168 -> 169 ;
170 [label="mse = 0.0\nsamples = 1\nvalue = 0.0"] ;
168 -> 170 ;
171 [label="mse = 0.0\nsamples = 1\nvalue = 0.0"] ;
167 -> 171 ;
172 [label="Mom_20 <= 0.0\nmse = 0.0\nsamples = 145\nvalue = 0.0"] ;
92 -> 172 ;
173 [label="Mom_20 <= 0.0\nmse = 0.0\nsamples = 39\nvalue = 0.0"] ;
172 -> 173 ;
174 [label="MVA Norm <= -0.2\nmse = 0.0\nsamples = 38\nvalue = 0.0"] ;
173 -> 174 ;
175 [label="Mom_20 <= -0.0\nmse = 0.0\nsamples = 11\nvalue = 0.0"] ;
174 -> 175 ;
176 [label="Mom_01 <= 0.0\nmse = 0.0\nsamples = 4\nvalue = -0.0"] ;
175 -> 176 ;
177 [label="Mom_20 <= -0.0\nmse = 0.0\nsamples = 3\nvalue = -0.0"] ;
176 -> 177 ;
178 [label="Mom_20 <= -0.0\nmse = 0.0\nsamples = 2\nvalue = -0.0"] ;
177 -> 178 ;
179 [label="mse = 0.0\nsamples = 1\nvalue = -0.0"] ;
178 -> 179 ;
180 [label="mse = 0.0\nsamples = 1\nvalue = -0.0"] ;
178 -> 180 ;
181 [label="mse = 0.0\nsamples = 1\nvalue = 0.0"] ;
177 -> 181 ;
182 [label="mse = 0.0\nsamples = 1\nvalue = -0.0"] ;
176 -> 182 ;
183 [label="Mom_05 <= -0.0\nmse = 0.0\nsamples = 7\nvalue = 0.0"] ;
175 -> 183 ;
184 [label="MVA Norm <= -0.3\nmse = 0.0\nsamples = 5\nvalue = 0.0"] ;
183 -> 184 ;
185 [label="Mom_10 <= -0.0\nmse = 0.0\nsamples = 4\nvalue = 0.0"] ;
184 -> 185 ;
186 [label="MVA Norm <= -0.4\nmse = 0.0\nsamples = 2\nvalue = 0.0"] ;
185 -> 186 ;
187 [label="mse = 0.0\nsamples = 1\nvalue = 0.0"] ;
186 -> 187 ;
188 [label="mse = 0.0\nsamples = 1\nvalue = 0.0"] ;
186 -> 188 ;
189 [label="Mom_05 <= -0.0\nmse = 0.0\nsamples = 2\nvalue = 0.0"] ;
185 -> 189 ;
190 [label="mse = 0.0\nsamples = 1\nvalue = 0.0"] ;
189 -> 190 ;
191 [label="mse = 0.0\nsamples = 1\nvalue = 0.0"] ;
189 -> 191 ;
192 [label="mse = -0.0\nsamples = 1\nvalue = -0.0"] ;
184 -> 192 ;
193 [label="Mom_20 <= -0.0\nmse = 0.0\nsamples = 2\nvalue = 0.1"] ;
183 -> 193 ;
194 [label="mse = 0.0\nsamples = 1\nvalue = 0.1"] ;
193 -> 194 ;
195 [label="mse = 0.0\nsamples = 1\nvalue = 0.1"] ;
193 -> 195 ;
196 [label="MVA Norm <= -0.1\nmse = 0.0\nsamples = 27\nvalue = 0.0"] ;
174 -> 196 ;
197 [label="Mom_10 <= -0.0\nmse = 0.0\nsamples = 9\nvalue = 0.1"] ;
196 -> 197 ;
198 [label="Mom_05 <= 0.0\nmse = 0.0\nsamples = 2\nvalue = 0.0"] ;
197 -> 198 ;
199 [label="mse = 0.0\nsamples = 1\nvalue = 0.0"] ;
198 -> 199 ;
200 [label="mse = 0.0\nsamples = 1\nvalue = 0.0"] ;
198 -> 200 ;
201 [label="Mom_10 <= -0.0\nmse = 0.0\nsamples = 7\nvalue = 0.1"] ;
197 -> 201 ;
202 [label="mse = 0.0\nsamples = 1\nvalue = 0.1"] ;
201 -> 202 ;
203 [label="Mom_05 <= 0.0\nmse = 0.0\nsamples = 6\nvalue = 0.1"] ;
201 -> 203 ;
204 [label="Mom_05 <= -0.0\nmse = 0.0\nsamples = 4\nvalue = 0.0"] ;
203 -> 204 ;
205 [label="MVA Norm <= -0.1\nmse = 0.0\nsamples = 2\nvalue = 0.1"] ;
204 -> 205 ;
206 [label="mse = 0.0\nsamples = 1\nvalue = 0.0"] ;
205 -> 206 ;
207 [label="mse = 0.0\nsamples = 1\nvalue = 0.1"] ;
205 -> 207 ;
208 [label="Mom_05 <= -0.0\nmse = 0.0\nsamples = 2\nvalue = 0.0"] ;
204 -> 208 ;
209 [label="mse = 0.0\nsamples = 1\nvalue = 0.0"] ;
208 -> 209 ;
210 [label="mse = 0.0\nsamples = 1\nvalue = 0.0"] ;
208 -> 210 ;
211 [label="Mom_20 <= -0.0\nmse = 0.0\nsamples = 2\nvalue = 0.1"] ;
203 -> 211 ;
212 [label="mse = 0.0\nsamples = 1\nvalue = 0.1"] ;
211 -> 212 ;
213 [label="mse = -0.0\nsamples = 1\nvalue = 0.1"] ;
211 -> 213 ;
214 [label="Mom_05 <= -0.0\nmse = 0.0\nsamples = 18\nvalue = 0.0"] ;
196 -> 214 ;
215 [label="Mom_20 <= 0.0\nmse = 0.0\nsamples = 6\nvalue = 0.0"] ;
214 -> 215 ;
216 [label="Mom_05 <= -0.0\nmse = 0.0\nsamples = 5\nvalue = 0.0"] ;
215 -> 216 ;
217 [label="Mom_20 <= -0.1\nmse = 0.0\nsamples = 4\nvalue = 0.0"] ;
216 -> 217 ;
218 [label="mse = 0.0\nsamples = 1\nvalue = 0.0"] ;
217 -> 218 ;
219 [label="Mom_01 <= 0.0\nmse = 0.0\nsamples = 3\nvalue = 0.0"] ;
217 -> 219 ;
220 [label="mse = 0.0\nsamples = 1\nvalue = 0.0"] ;
219 -> 220 ;
221 [label="mse = 0.0\nsamples = 2\nvalue = 0.0"] ;
219 -> 221 ;
222 [label="mse = -0.0\nsamples = 1\nvalue = 0.1"] ;
216 -> 222 ;
223 [label="mse = 0.0\nsamples = 1\nvalue = 0.0"] ;
215 -> 223 ;
224 [label="Mom_05 <= -0.0\nmse = 0.0\nsamples = 12\nvalue = 0.0"] ;
214 -> 224 ;
225 [label="mse = 0.0\nsamples = 1\nvalue = -0.0"] ;
224 -> 225 ;
226 [label="Mom_10 <= -0.0\nmse = 0.0\nsamples = 11\nvalue = 0.0"] ;
224 -> 226 ;
227 [label="Mom_05 <= 0.0\nmse = 0.0\nsamples = 2\nvalue = -0.0"] ;
226 -> 227 ;
228 [label="mse = 0.0\nsamples = 1\nvalue = 0.0"] ;
227 -> 228 ;
229 [label="mse = 0.0\nsamples = 1\nvalue = -0.0"] ;
227 -> 229 ;
230 [label="MVA Norm <= 0.3\nmse = 0.0\nsamples = 9\nvalue = 0.0"] ;
226 -> 230 ;
231 [label="Mom_05 <= -0.0\nmse = 0.0\nsamples = 5\nvalue = 0.0"] ;
230 -> 231 ;
232 [label="mse = 0.0\nsamples = 1\nvalue = 0.0"] ;
231 -> 232 ;
233 [label="Mom_10 <= 0.0\nmse = 0.0\nsamples = 4\nvalue = 0.0"] ;
231 -> 233 ;
234 [label="Mom_05 <= 0.0\nmse = 0.0\nsamples = 2\nvalue = 0.0"] ;
233 -> 234 ;
235 [label="mse = 0.0\nsamples = 1\nvalue = 0.0"] ;
234 -> 235 ;
236 [label="mse = 0.0\nsamples = 1\nvalue = 0.0"] ;
234 -> 236 ;
237 [label="Mom_10 <= 0.0\nmse = 0.0\nsamples = 2\nvalue = 0.0"] ;
233 -> 237 ;
238 [label="mse = 0.0\nsamples = 1\nvalue = 0.0"] ;
237 -> 238 ;
239 [label="mse = 0.0\nsamples = 1\nvalue = 0.0"] ;
237 -> 239 ;
240 [label="Mom_10 <= 0.0\nmse = 0.0\nsamples = 4\nvalue = 0.0"] ;
230 -> 240 ;
241 [label="MVA Norm <= 0.5\nmse = 0.0\nsamples = 2\nvalue = 0.0"] ;
240 -> 241 ;
242 [label="mse = 0.0\nsamples = 1\nvalue = 0.0"] ;
241 -> 242 ;
243 [label="mse = 0.0\nsamples = 1\nvalue = 0.0"] ;
241 -> 243 ;
244 [label="Mom_10 <= 0.0\nmse = 0.0\nsamples = 2\nvalue = 0.0"] ;
240 -> 244 ;
245 [label="mse = 0.0\nsamples = 1\nvalue = 0.0"] ;
244 -> 245 ;
246 [label="mse = 0.0\nsamples = 1\nvalue = 0.0"] ;
244 -> 246 ;
247 [label="mse = 0.0\nsamples = 1\nvalue = 0.1"] ;
173 -> 247 ;
248 [label="Mom_10 <= 0.1\nmse = 0.0\nsamples = 106\nvalue = 0.0"] ;
172 -> 248 ;
249 [label="Mom_10 <= 0.0\nmse = 0.0\nsamples = 94\nvalue = 0.0"] ;
248 -> 249 ;
250 [label="MVA Norm <= 0.2\nmse = 0.0\nsamples = 69\nvalue = 0.0"] ;
249 -> 250 ;
251 [label="Mom_20 <= 0.1\nmse = 0.0\nsamples = 22\nvalue = 0.0"] ;
250 -> 251 ;
252 [label="Mom_10 <= 0.0\nmse = 0.0\nsamples = 19\nvalue = 0.0"] ;
251 -> 252 ;
253 [label="Mom_10 <= 0.0\nmse = 0.0\nsamples = 17\nvalue = 0.0"] ;
252 -> 253 ;
254 [label="Mom_10 <= 0.0\nmse = 0.0\nsamples = 13\nvalue = 0.0"] ;
253 -> 254 ;
255 [label="Mom_20 <= 0.0\nmse = 0.0\nsamples = 10\nvalue = 0.0"] ;
254 -> 255 ;
256 [label="Mom_20 <= 0.0\nmse = 0.0\nsamples = 2\nvalue = 0.0"] ;
255 -> 256 ;
257 [label="mse = 0.0\nsamples = 1\nvalue = 0.0"] ;
256 -> 257 ;
258 [label="mse = -0.0\nsamples = 1\nvalue = 0.0"] ;
256 -> 258 ;
259 [label="Mom_10 <= -0.0\nmse = 0.0\nsamples = 8\nvalue = 0.0"] ;
255 -> 259 ;
260 [label="mse = 0.0\nsamples = 1\nvalue = 0.0"] ;
259 -> 260 ;
261 [label="Mom_05 <= 0.0\nmse = 0.0\nsamples = 7\nvalue = 0.0"] ;
259 -> 261 ;
262 [label="Mom_10 <= -0.0\nmse = 0.0\nsamples = 6\nvalue = 0.0"] ;
261 -> 262 ;
263 [label="Mom_01 <= -0.0\nmse = 0.0\nsamples = 5\nvalue = 0.0"] ;
262 -> 263 ;
264 [label="mse = 0.0\nsamples = 1\nvalue = 0.0"] ;
263 -> 264 ;
265 [label="Mom_10 <= -0.0\nmse = 0.0\nsamples = 4\nvalue = 0.0"] ;
263 -> 265 ;
266 [label="MVA Norm <= 0.1\nmse = 0.0\nsamples = 2\nvalue = 0.0"] ;
265 -> 266 ;
267 [label="mse = 0.0\nsamples = 1\nvalue = 0.0"] ;
266 -> 267 ;
268 [label="mse = 0.0\nsamples = 1\nvalue = 0.0"] ;
266 -> 268 ;
269 [label="Mom_01 <= -0.0\nmse = 0.0\nsamples = 2\nvalue = 0.0"] ;
265 -> 269 ;
270 [label="mse = 0.0\nsamples = 1\nvalue = 0.0"] ;
269 -> 270 ;
271 [label="mse = 0.0\nsamples = 1\nvalue = 0.0"] ;
269 -> 271 ;
272 [label="mse = 0.0\nsamples = 1\nvalue = -0.0"] ;
262 -> 272 ;
273 [label="mse = -0.0\nsamples = 1\nvalue = -0.0"] ;
261 -> 273 ;
274 [label="MVA Norm <= -0.2\nmse = 0.0\nsamples = 3\nvalue = 0.0"] ;
254 -> 274 ;
275 [label="mse = 0.0\nsamples = 1\nvalue = 0.1"] ;
274 -> 275 ;
276 [label="MVA Norm <= 0.0\nmse = 0.0\nsamples = 2\nvalue = 0.0"] ;
274 -> 276 ;
277 [label="mse = 0.0\nsamples = 1\nvalue = 0.0"] ;
276 -> 277 ;
278 [label="mse = 0.0\nsamples = 1\nvalue = 0.0"] ;
276 -> 278 ;
279 [label="Mom_05 <= -0.0\nmse = 0.0\nsamples = 4\nvalue = -0.0"] ;
253 -> 279 ;
280 [label="Mom_05 <= -0.0\nmse = 0.0\nsamples = 2\nvalue = 0.0"] ;
279 -> 280 ;
281 [label="mse = 0.0\nsamples = 1\nvalue = -0.0"] ;
280 -> 281 ;
282 [label="mse = 0.0\nsamples = 1\nvalue = 0.0"] ;
280 -> 282 ;
283 [label="Mom_05 <= 0.0\nmse = 0.0\nsamples = 2\nvalue = -0.0"] ;
279 -> 283 ;
284 [label="mse = 0.0\nsamples = 1\nvalue = -0.0"] ;
283 -> 284 ;
285 [label="mse = 0.0\nsamples = 1\nvalue = -0.0"] ;
283 -> 285 ;
286 [label="MVA Norm <= 0.2\nmse = 0.0\nsamples = 2\nvalue = 0.0"] ;
252 -> 286 ;
287 [label="mse = 0.0\nsamples = 1\nvalue = 0.0"] ;
286 -> 287 ;
288 [label="mse = 0.0\nsamples = 1\nvalue = 0.1"] ;
286 -> 288 ;
289 [label="MVA Norm <= 0.0\nmse = 0.0\nsamples = 3\nvalue = 0.0"] ;
251 -> 289 ;
290 [label="mse = 0.0\nsamples = 1\nvalue = 0.1"] ;
289 -> 290 ;
291 [label="Mom_20 <= 0.1\nmse = 0.0\nsamples = 2\nvalue = 0.0"] ;
289 -> 291 ;
292 [label="mse = 0.0\nsamples = 1\nvalue = 0.0"] ;
291 -> 292 ;
293 [label="mse = 0.0\nsamples = 1\nvalue = 0.0"] ;
291 -> 293 ;
294 [label="Mom_01 <= 0.0\nmse = 0.0\nsamples = 47\nvalue = 0.0"] ;
250 -> 294 ;
295 [label="Mom_10 <= 0.0\nmse = 0.0\nsamples = 37\nvalue = -0.0"] ;
294 -> 295 ;
296 [label="Mom_05 <= -0.0\nmse = 0.0\nsamples = 32\nvalue = -0.0"] ;
295 -> 296 ;
297 [label="Mom_01 <= -0.0\nmse = 0.0\nsamples = 3\nvalue = -0.0"] ;
296 -> 297 ;
298 [label="mse = 0.0\nsamples = 1\nvalue = -0.0"] ;
297 -> 298 ;
299 [label="Mom_05 <= -0.0\nmse = 0.0\nsamples = 2\nvalue = -0.0"] ;
297 -> 299 ;
300 [label="mse = 0.0\nsamples = 1\nvalue = -0.0"] ;
299 -> 300 ;
301 [label="mse = 0.0\nsamples = 1\nvalue = -0.0"] ;
299 -> 301 ;
302 [label="Mom_10 <= 0.0\nmse = 0.0\nsamples = 29\nvalue = -0.0"] ;
296 -> 302 ;
303 [label="Mom_10 <= 0.0\nmse = 0.0\nsamples = 21\nvalue = 0.0"] ;
302 -> 303 ;
304 [label="Mom_01 <= -0.0\nmse = 0.0\nsamples = 13\nvalue = -0.0"] ;
303 -> 304 ;
305 [label="MVA Norm <= 0.3\nmse = 0.0\nsamples = 5\nvalue = 0.0"] ;
304 -> 305 ;
306 [label="mse = 0.0\nsamples = 1\nvalue = -0.0"] ;
305 -> 306 ;
307 [label="MVA Norm <= 0.3\nmse = 0.0\nsamples = 4\nvalue = 0.0"] ;
305 -> 307 ;
308 [label="MVA Norm <= 0.3\nmse = 0.0\nsamples = 2\nvalue = 0.0"] ;
307 -> 308 ;
309 [label="mse = 0.0\nsamples = 1\nvalue = 0.0"] ;
308 -> 309 ;
310 [label="mse = 0.0\nsamples = 1\nvalue = 0.0"] ;
308 -> 310 ;
311 [label="Mom_01 <= -0.0\nmse = 0.0\nsamples = 2\nvalue = 0.0"] ;
307 -> 311 ;
312 [label="mse = 0.0\nsamples = 1\nvalue = 0.0"] ;
311 -> 312 ;
313 [label="mse = -0.0\nsamples = 1\nvalue = 0.0"] ;
311 -> 313 ;
314 [label="Mom_20 <= 0.1\nmse = 0.0\nsamples = 8\nvalue = -0.0"] ;
304 -> 314 ;
315 [label="Mom_10 <= 0.0\nmse = 0.0\nsamples = 6\nvalue = -0.0"] ;
314 -> 315 ;
316 [label="Mom_01 <= 0.0\nmse = 0.0\nsamples = 4\nvalue = -0.0"] ;
315 -> 316 ;
317 [label="Mom_10 <= 0.0\nmse = 0.0\nsamples = 3\nvalue = -0.0"] ;
316 -> 317 ;
318 [label="mse = 0.0\nsamples = 2\nvalue = -0.0"] ;
317 -> 318 ;
319 [label="mse = -0.0\nsamples = 1\nvalue = -0.0"] ;
317 -> 319 ;
320 [label="mse = -0.0\nsamples = 1\nvalue = -0.0"] ;
316 -> 320 ;
321 [label="MVA Norm <= 0.6\nmse = 0.0\nsamples = 2\nvalue = -0.0"] ;
315 -> 321 ;
322 [label="mse = 0.0\nsamples = 1\nvalue = -0.0"] ;
321 -> 322 ;
323 [label="mse = 0.0\nsamples = 1\nvalue = -0.0"] ;
321 -> 323 ;
324 [label="Mom_05 <= 0.0\nmse = 0.0\nsamples = 2\nvalue = -0.0"] ;
314 -> 324 ;
325 [label="mse = 0.0\nsamples = 1\nvalue = -0.0"] ;
324 -> 325 ;
326 [label="mse = 0.0\nsamples = 1\nvalue = -0.0"] ;
324 -> 326 ;
327 [label="Mom_05 <= 0.0\nmse = 0.0\nsamples = 8\nvalue = 0.0"] ;
303 -> 327 ;
328 [label="Mom_01 <= 0.0\nmse = 0.0\nsamples = 5\nvalue = 0.0"] ;
327 -> 328 ;
329 [label="Mom_01 <= -0.0\nmse = 0.0\nsamples = 4\nvalue = 0.0"] ;
328 -> 329 ;
330 [label="Mom_05 <= -0.0\nmse = 0.0\nsamples = 2\nvalue = 0.0"] ;
329 -> 330 ;
331 [label="mse = 0.0\nsamples = 1\nvalue = 0.0"] ;
330 -> 331 ;
332 [label="mse = 0.0\nsamples = 1\nvalue = 0.0"] ;
330 -> 332 ;
333 [label="MVA Norm <= 0.6\nmse = 0.0\nsamples = 2\nvalue = 0.0"] ;
329 -> 333 ;
334 [label="mse = 0.0\nsamples = 1\nvalue = -0.0"] ;
333 -> 334 ;
335 [label="mse = 0.0\nsamples = 1\nvalue = 0.0"] ;
333 -> 335 ;
336 [label="mse = 0.0\nsamples = 1\nvalue = -0.0"] ;
328 -> 336 ;
337 [label="Mom_01 <= 0.0\nmse = 0.0\nsamples = 3\nvalue = 0.0"] ;
327 -> 337 ;
338 [label="Mom_10 <= 0.0\nmse = 0.0\nsamples = 2\nvalue = 0.0"] ;
337 -> 338 ;
339 [label="mse = 0.0\nsamples = 1\nvalue = 0.0"] ;
338 -> 339 ;
340 [label="mse = -0.0\nsamples = 1\nvalue = 0.0"] ;
338 -> 340 ;
341 [label="mse = 0.0\nsamples = 1\nvalue = 0.0"] ;
337 -> 341 ;
342 [label="Mom_05 <= 0.0\nmse = 0.0\nsamples = 8\nvalue = -0.0"] ;
302 -> 342 ;
343 [label="Mom_01 <= -0.0\nmse = 0.0\nsamples = 5\nvalue = -0.0"] ;
342 -> 343 ;
344 [label="mse = 0.0\nsamples = 1\nvalue = -0.0"] ;
343 -> 344 ;
345 [label="Mom_10 <= 0.0\nmse = 0.0\nsamples = 4\nvalue = -0.0"] ;
343 -> 345 ;
346 [label="Mom_10 <= 0.0\nmse = 0.0\nsamples = 3\nvalue = -0.0"] ;
345 -> 346 ;
347 [label="mse = 0.0\nsamples = 1\nvalue = -0.0"] ;
346 -> 347 ;
348 [label="mse = 0.0\nsamples = 2\nvalue = -0.0"] ;
346 -> 348 ;
349 [label="mse = 0.0\nsamples = 1\nvalue = -0.0"] ;
345 -> 349 ;
350 [label="Mom_05 <= 0.0\nmse = 0.0\nsamples = 3\nvalue = -0.0"] ;
342 -> 350 ;
351 [label="Mom_20 <= 0.1\nmse = 0.0\nsamples = 2\nvalue = -0.0"] ;
350 -> 351 ;
352 [label="mse = 0.0\nsamples = 1\nvalue = -0.0"] ;
351 -> 352 ;
353 [label="mse = 0.0\nsamples = 1\nvalue = -0.0"] ;
351 -> 353 ;
354 [label="mse = 0.0\nsamples = 1\nvalue = -0.0"] ;
350 -> 354 ;
355 [label="MVA Norm <= 0.6\nmse = 0.0\nsamples = 5\nvalue = 0.0"] ;
295 -> 355 ;
356 [label="Mom_05 <= -0.0\nmse = 0.0\nsamples = 4\nvalue = 0.0"] ;
355 -> 356 ;
357 [label="mse = 0.0\nsamples = 1\nvalue = -0.0"] ;
356 -> 357 ;
358 [label="MVA Norm <= 0.4\nmse = 0.0\nsamples = 3\nvalue = 0.0"] ;
356 -> 358 ;
359 [label="mse = 0.0\nsamples = 1\nvalue = 0.0"] ;
358 -> 359 ;
360 [label="MVA Norm <= 0.5\nmse = 0.0\nsamples = 2\nvalue = 0.0"] ;
358 -> 360 ;
361 [label="mse = 0.0\nsamples = 1\nvalue = 0.0"] ;
360 -> 361 ;
362 [label="mse = -0.0\nsamples = 1\nvalue = 0.0"] ;
360 -> 362 ;
363 [label="mse = -0.0\nsamples = 1\nvalue = -0.0"] ;
355 -> 363 ;
364 [label="MVA Norm <= 0.5\nmse = 0.0\nsamples = 10\nvalue = 0.0"] ;
294 -> 364 ;
365 [label="Mom_05 <= 0.0\nmse = 0.0\nsamples = 3\nvalue = 0.0"] ;
364 -> 365 ;
366 [label="mse = 0.0\nsamples = 1\nvalue = 0.0"] ;
365 -> 366 ;
367 [label="Mom_10 <= 0.0\nmse = 0.0\nsamples = 2\nvalue = 0.0"] ;
365 -> 367 ;
368 [label="mse = 0.0\nsamples = 1\nvalue = 0.0"] ;
367 -> 368 ;
369 [label="mse = 0.0\nsamples = 1\nvalue = 0.1"] ;
367 -> 369 ;
370 [label="Mom_20 <= 0.1\nmse = 0.0\nsamples = 7\nvalue = 0.0"] ;
364 -> 370 ;
371 [label="MVA Norm <= 0.7\nmse = 0.0\nsamples = 5\nvalue = 0.0"] ;
370 -> 371 ;
372 [label="MVA Norm <= 0.5\nmse = 0.0\nsamples = 4\nvalue = 0.0"] ;
371 -> 372 ;
373 [label="mse = 0.0\nsamples = 2\nvalue = 0.0"] ;
372 -> 373 ;
374 [label="MVA Norm <= 0.6\nmse = 0.0\nsamples = 2\nvalue = 0.0"] ;
372 -> 374 ;
375 [label="mse = 0.0\nsamples = 1\nvalue = 0.0"] ;
374 -> 375 ;
376 [label="mse = 0.0\nsamples = 1\nvalue = 0.0"] ;
374 -> 376 ;
377 [label="mse = -0.0\nsamples = 1\nvalue = 0.0"] ;
371 -> 377 ;
378 [label="Mom_01 <= 0.0\nmse = 0.0\nsamples = 2\nvalue = -0.0"] ;
370 -> 378 ;
379 [label="mse = 0.0\nsamples = 1\nvalue = -0.0"] ;
378 -> 379 ;
380 [label="mse = 0.0\nsamples = 1\nvalue = -0.0"] ;
378 -> 380 ;
381 [label="Mom_01 <= 0.0\nmse = 0.0\nsamples = 25\nvalue = -0.0"] ;
249 -> 381 ;
382 [label="Mom_01 <= -0.0\nmse = 0.0\nsamples = 22\nvalue = -0.0"] ;
381 -> 382 ;
383 [label="Mom_20 <= 0.0\nmse = 0.0\nsamples = 3\nvalue = 0.0"] ;
382 -> 383 ;
384 [label="Mom_05 <= -0.0\nmse = 0.0\nsamples = 2\nvalue = 0.0"] ;
383 -> 384 ;
385 [label="mse = -0.0\nsamples = 1\nvalue = 0.0"] ;
384 -> 385 ;
386 [label="mse = 0.0\nsamples = 1\nvalue = 0.0"] ;
384 -> 386 ;
387 [label="mse = 0.0\nsamples = 1\nvalue = 0.0"] ;
383 -> 387 ;
388 [label="Mom_20 <= 0.0\nmse = 0.0\nsamples = 19\nvalue = -0.0"] ;
382 -> 388 ;
389 [label="Mom_10 <= 0.0\nmse = 0.0\nsamples = 8\nvalue = -0.0"] ;
388 -> 389 ;
390 [label="Mom_05 <= 0.0\nmse = 0.0\nsamples = 6\nvalue = -0.0"] ;
389 -> 390 ;
391 [label="Mom_05 <= 0.0\nmse = 0.0\nsamples = 4\nvalue = -0.0"] ;
390 -> 391 ;
392 [label="Mom_01 <= 0.0\nmse = 0.0\nsamples = 2\nvalue = -0.0"] ;
391 -> 392 ;
393 [label="mse = 0.0\nsamples = 1\nvalue = -0.0"] ;
392 -> 393 ;
394 [label="mse = -0.0\nsamples = 1\nvalue = -0.0"] ;
392 -> 394 ;
395 [label="mse = 0.0\nsamples = 2\nvalue = -0.0"] ;
391 -> 395 ;
396 [label="Mom_05 <= 0.0\nmse = 0.0\nsamples = 2\nvalue = -0.0"] ;
390 -> 396 ;
397 [label="mse = 0.0\nsamples = 1\nvalue = -0.0"] ;
396 -> 397 ;
398 [label="mse = -0.0\nsamples = 1\nvalue = -0.0"] ;
396 -> 398 ;
399 [label="Mom_01 <= 0.0\nmse = 0.0\nsamples = 2\nvalue = -0.0"] ;
389 -> 399 ;
400 [label="mse = 0.0\nsamples = 1\nvalue = -0.0"] ;
399 -> 400 ;
401 [label="mse = 0.0\nsamples = 1\nvalue = -0.0"] ;
399 -> 401 ;
402 [label="Mom_05 <= 0.0\nmse = 0.0\nsamples = 11\nvalue = -0.0"] ;
388 -> 402 ;
403 [label="Mom_01 <= 0.0\nmse = 0.0\nsamples = 8\nvalue = -0.0"] ;
402 -> 403 ;
404 [label="Mom_05 <= -0.0\nmse = 0.0\nsamples = 6\nvalue = -0.0"] ;
403 -> 404 ;
405 [label="mse = 0.0\nsamples = 1\nvalue = 0.0"] ;
404 -> 405 ;
406 [label="Mom_01 <= -0.0\nmse = 0.0\nsamples = 5\nvalue = -0.0"] ;
404 -> 406 ;
407 [label="mse = 0.0\nsamples = 1\nvalue = -0.0"] ;
406 -> 407 ;
408 [label="Mom_01 <= 0.0\nmse = 0.0\nsamples = 4\nvalue = -0.0"] ;
406 -> 408 ;
409 [label="mse = 0.0\nsamples = 3\nvalue = -0.0"] ;
408 -> 409 ;
410 [label="mse = 0.0\nsamples = 1\nvalue = -0.0"] ;
408 -> 410 ;
411 [label="Mom_01 <= 0.0\nmse = 0.0\nsamples = 2\nvalue = 0.0"] ;
403 -> 411 ;
412 [label="mse = 0.0\nsamples = 1\nvalue = 0.0"] ;
411 -> 412 ;
413 [label="mse = 0.0\nsamples = 1\nvalue = 0.0"] ;
411 -> 413 ;
414 [label="Mom_20 <= 0.1\nmse = 0.0\nsamples = 3\nvalue = -0.0"] ;
402 -> 414 ;
415 [label="mse = 0.0\nsamples = 1\nvalue = -0.0"] ;
414 -> 415 ;
416 [label="Mom_05 <= 0.0\nmse = 0.0\nsamples = 2\nvalue = -0.0"] ;
414 -> 416 ;
417 [label="mse = 0.0\nsamples = 1\nvalue = -0.0"] ;
416 -> 417 ;
418 [label="mse = 0.0\nsamples = 1\nvalue = -0.0"] ;
416 -> 418 ;
419 [label="Mom_20 <= 0.1\nmse = 0.0\nsamples = 3\nvalue = 0.0"] ;
381 -> 419 ;
420 [label="Mom_01 <= 0.0\nmse = 0.0\nsamples = 2\nvalue = 0.0"] ;
419 -> 420 ;
421 [label="mse = 0.0\nsamples = 1\nvalue = 0.0"] ;
420 -> 421 ;
422 [label="mse = 0.0\nsamples = 1\nvalue = 0.0"] ;
420 -> 422 ;
423 [label="mse = -0.0\nsamples = 1\nvalue = -0.0"] ;
419 -> 423 ;
424 [label="Mom_10 <= 0.1\nmse = 0.0\nsamples = 12\nvalue = 0.0"] ;
248 -> 424 ;
425 [label="Mom_05 <= 0.0\nmse = 0.0\nsamples = 2\nvalue = 0.1"] ;
424 -> 425 ;
426 [label="mse = 0.0\nsamples = 1\nvalue = 0.1"] ;
425 -> 426 ;
427 [label="mse = 0.0\nsamples = 1\nvalue = 0.1"] ;
425 -> 427 ;
428 [label="MVA Norm <= 0.4\nmse = 0.0\nsamples = 10\nvalue = 0.0"] ;
424 -> 428 ;
429 [label="mse = 0.0\nsamples = 1\nvalue = 0.1"] ;
428 -> 429 ;
430 [label="Mom_10 <= 0.1\nmse = 0.0\nsamples = 9\nvalue = 0.0"] ;
428 -> 430 ;
431 [label="Mom_10 <= 0.1\nmse = 0.0\nsamples = 4\nvalue = -0.0"] ;
430 -> 431 ;
432 [label="MVA Norm <= 0.7\nmse = 0.0\nsamples = 3\nvalue = 0.0"] ;
431 -> 432 ;
433 [label="mse = 0.0\nsamples = 2\nvalue = 0.0"] ;
432 -> 433 ;
434 [label="mse = 0.0\nsamples = 1\nvalue = -0.0"] ;
432 -> 434 ;
435 [label="mse = 0.0\nsamples = 1\nvalue = -0.0"] ;
431 -> 435 ;
436 [label="Mom_01 <= 0.0\nmse = 0.0\nsamples = 5\nvalue = 0.0"] ;
430 -> 436 ;
437 [label="Mom_10 <= 0.1\nmse = 0.0\nsamples = 3\nvalue = 0.0"] ;
436 -> 437 ;
438 [label="mse = 0.0\nsamples = 1\nvalue = 0.0"] ;
437 -> 438 ;
439 [label="mse = 0.0\nsamples = 2\nvalue = 0.0"] ;
437 -> 439 ;
440 [label="MVA Norm <= 0.7\nmse = 0.0\nsamples = 2\nvalue = 0.0"] ;
436 -> 440 ;
441 [label="mse = 0.0\nsamples = 1\nvalue = 0.0"] ;
440 -> 441 ;
442 [label="mse = 0.0\nsamples = 1\nvalue = 0.0"] ;
440 -> 442 ;
443 [label="Mom_01 <= 0.1\nmse = 0.0\nsamples = 2\nvalue = 0.1"] ;
5 -> 443 ;
444 [label="mse = 0.0\nsamples = 1\nvalue = 0.1"] ;
443 -> 444 ;
445 [label="mse = 0.0\nsamples = 1\nvalue = 0.1"] ;
443 -> 445 ;
446 [label="Mom_20 <= -0.2\nmse = 0.0\nsamples = 83\nvalue = -0.0"] ;
2 -> 446 ;
447 [label="Mom_20 <= -0.2\nmse = 0.0\nsamples = 2\nvalue = -0.1"] ;
446 -> 447 ;
448 [label="mse = 0.0\nsamples = 1\nvalue = -0.1"] ;
447 -> 448 ;
449 [label="mse = -0.0\nsamples = 1\nvalue = -0.1"] ;
447 -> 449 ;
450 [label="Mom_05 <= 0.2\nmse = 0.0\nsamples = 81\nvalue = -0.0"] ;
446 -> 450 ;
451 [label="Mom_05 <= 0.1\nmse = 0.0\nsamples = 80\nvalue = -0.0"] ;
450 -> 451 ;
452 [label="Mom_05 <= 0.0\nmse = 0.0\nsamples = 69\nvalue = -0.0"] ;
451 -> 452 ;
453 [label="Mom_20 <= 0.1\nmse = 0.0\nsamples = 33\nvalue = -0.0"] ;
452 -> 453 ;
454 [label="Mom_10 <= -0.0\nmse = 0.0\nsamples = 26\nvalue = 0.0"] ;
453 -> 454 ;
455 [label="Mom_10 <= -0.0\nmse = 0.0\nsamples = 5\nvalue = -0.0"] ;
454 -> 455 ;
456 [label="Mom_10 <= -0.1\nmse = 0.0\nsamples = 3\nvalue = -0.0"] ;
455 -> 456 ;
457 [label="mse = 0.0\nsamples = 1\nvalue = -0.0"] ;
456 -> 457 ;
458 [label="mse = 0.0\nsamples = 2\nvalue = -0.0"] ;
456 -> 458 ;
459 [label="Mom_05 <= 0.0\nmse = 0.0\nsamples = 2\nvalue = -0.1"] ;
455 -> 459 ;
460 [label="mse = 0.0\nsamples = 1\nvalue = -0.1"] ;
459 -> 460 ;
461 [label="mse = -0.0\nsamples = 1\nvalue = -0.0"] ;
459 -> 461 ;
462 [label="Mom_05 <= 0.0\nmse = 0.0\nsamples = 21\nvalue = 0.0"] ;
454 -> 462 ;
463 [label="Mom_01 <= 0.0\nmse = 0.0\nsamples = 3\nvalue = -0.0"] ;
462 -> 463 ;
464 [label="Mom_20 <= 0.1\nmse = 0.0\nsamples = 2\nvalue = -0.0"] ;
463 -> 464 ;
465 [label="mse = 0.0\nsamples = 1\nvalue = -0.0"] ;
464 -> 465 ;
466 [label="mse = 0.0\nsamples = 1\nvalue = -0.0"] ;
464 -> 466 ;
467 [label="mse = 0.0\nsamples = 1\nvalue = -0.0"] ;
463 -> 467 ;
468 [label="Mom_01 <= -0.0\nmse = 0.0\nsamples = 18\nvalue = 0.0"] ;
462 -> 468 ;
469 [label="Mom_01 <= -0.0\nmse = 0.0\nsamples = 2\nvalue = 0.1"] ;
468 -> 469 ;
470 [label="mse = 0.0\nsamples = 1\nvalue = 0.0"] ;
469 -> 470 ;
471 [label="mse = 0.0\nsamples = 1\nvalue = 0.1"] ;
469 -> 471 ;
472 [label="Mom_20 <= 0.1\nmse = 0.0\nsamples = 16\nvalue = 0.0"] ;
468 -> 472 ;
473 [label="Mom_10 <= 0.0\nmse = 0.0\nsamples = 13\nvalue = 0.0"] ;
472 -> 473 ;
474 [label="Mom_01 <= 0.0\nmse = 0.0\nsamples = 6\nvalue = 0.0"] ;
473 -> 474 ;
475 [label="MVA Norm <= 0.6\nmse = 0.0\nsamples = 4\nvalue = 0.0"] ;
474 -> 475 ;
476 [label="Mom_10 <= 0.0\nmse = 0.0\nsamples = 3\nvalue = 0.0"] ;
475 -> 476 ;
477 [label="Mom_01 <= -0.0\nmse = 0.0\nsamples = 2\nvalue = 0.0"] ;
476 -> 477 ;
478 [label="mse = 0.0\nsamples = 1\nvalue = 0.0"] ;
477 -> 478 ;
479 [label="mse = 0.0\nsamples = 1\nvalue = 0.1"] ;
477 -> 479 ;
480 [label="mse = -0.0\nsamples = 1\nvalue = 0.0"] ;
476 -> 480 ;
481 [label="mse = 0.0\nsamples = 1\nvalue = 0.0"] ;
475 -> 481 ;
482 [label="Mom_05 <= 0.0\nmse = 0.0\nsamples = 2\nvalue = -0.0"] ;
474 -> 482 ;
483 [label="mse = 0.0\nsamples = 1\nvalue = -0.0"] ;
482 -> 483 ;
484 [label="mse = 0.0\nsamples = 1\nvalue = -0.0"] ;
482 -> 484 ;
485 [label="Mom_01 <= -0.0\nmse = 0.0\nsamples = 7\nvalue = -0.0"] ;
473 -> 485 ;
486 [label="Mom_05 <= 0.0\nmse = 0.0\nsamples = 2\nvalue = -0.0"] ;
485 -> 486 ;
487 [label="mse = 0.0\nsamples = 1\nvalue = -0.0"] ;
486 -> 487 ;
488 [label="mse = 0.0\nsamples = 1\nvalue = -0.0"] ;
486 -> 488 ;
489 [label="Mom_05 <= 0.0\nmse = 0.0\nsamples = 5\nvalue = -0.0"] ;
485 -> 489 ;
490 [label="Mom_20 <= 0.0\nmse = 0.0\nsamples = 2\nvalue = 0.0"] ;
489 -> 490 ;
491 [label="mse = 0.0\nsamples = 1\nvalue = 0.0"] ;
490 -> 491 ;
492 [label="mse = 0.0\nsamples = 1\nvalue = -0.0"] ;
490 -> 492 ;
493 [label="Mom_05 <= 0.0\nmse = 0.0\nsamples = 3\nvalue = -0.0"] ;
489 -> 493 ;
494 [label="mse = 0.0\nsamples = 1\nvalue = -0.0"] ;
493 -> 494 ;
495 [label="Mom_01 <= 0.0\nmse = 0.0\nsamples = 2\nvalue = -0.0"] ;
493 -> 495 ;
496 [label="mse = 0.0\nsamples = 1\nvalue = -0.0"] ;
495 -> 496 ;
497 [label="mse = -0.0\nsamples = 1\nvalue = -0.0"] ;
495 -> 497 ;
498 [label="Mom_01 <= 0.0\nmse = 0.0\nsamples = 3\nvalue = 0.0"] ;
472 -> 498 ;
499 [label="Mom_05 <= 0.0\nmse = 0.0\nsamples = 2\nvalue = 0.0"] ;
498 -> 499 ;
500 [label="mse = 0.0\nsamples = 1\nvalue = 0.0"] ;
499 -> 500 ;
501 [label="mse = 0.0\nsamples = 1\nvalue = 0.0"] ;
499 -> 501 ;
502 [label="mse = 0.0\nsamples = 1\nvalue = 0.0"] ;
498 -> 502 ;
503 [label="MVA Norm <= 0.6\nmse = 0.0\nsamples = 7\nvalue = -0.0"] ;
453 -> 503 ;
504 [label="mse = 0.0\nsamples = 2\nvalue = -0.1"] ;
503 -> 504 ;
505 [label="Mom_20 <= 0.1\nmse = 0.0\nsamples = 5\nvalue = -0.0"] ;
503 -> 505 ;
506 [label="Mom_20 <= 0.1\nmse = 0.0\nsamples = 2\nvalue = -0.0"] ;
505 -> 506 ;
507 [label="mse = 0.0\nsamples = 1\nvalue = -0.0"] ;
506 -> 507 ;
508 [label="mse = -0.0\nsamples = 1\nvalue = -0.1"] ;
506 -> 508 ;
509 [label="MVA Norm <= 0.7\nmse = 0.0\nsamples = 3\nvalue = 0.0"] ;
505 -> 509 ;
510 [label="Mom_05 <= 0.0\nmse = 0.0\nsamples = 2\nvalue = 0.0"] ;
509 -> 510 ;
511 [label="mse = 0.0\nsamples = 1\nvalue = -0.0"] ;
510 -> 511 ;
512 [label="mse = 0.0\nsamples = 1\nvalue = 0.0"] ;
510 -> 512 ;
513 [label="mse = 0.0\nsamples = 1\nvalue = 0.0"] ;
509 -> 513 ;
514 [label="Mom_05 <= 0.1\nmse = 0.0\nsamples = 36\nvalue = -0.0"] ;
452 -> 514 ;
515 [label="Mom_05 <= 0.1\nmse = 0.0\nsamples = 31\nvalue = -0.0"] ;
514 -> 515 ;
516 [label="Mom_10 <= 0.1\nmse = 0.0\nsamples = 15\nvalue = -0.0"] ;
515 -> 516 ;
517 [label="Mom_10 <= -0.0\nmse = 0.0\nsamples = 9\nvalue = -0.0"] ;
516 -> 517 ;
518 [label="mse = 0.0\nsamples = 1\nvalue = 0.0"] ;
517 -> 518 ;
519 [label="MVA Norm <= 0.0\nmse = 0.0\nsamples = 8\nvalue = -0.0"] ;
517 -> 519 ;
520 [label="mse = 0.0\nsamples = 1\nvalue = -0.1"] ;
519 -> 520 ;
521 [label="MVA Norm <= 1.0\nmse = 0.0\nsamples = 7\nvalue = -0.0"] ;
519 -> 521 ;
522 [label="Mom_10 <= 0.0\nmse = 0.0\nsamples = 4\nvalue = -0.0"] ;
521 -> 522 ;
523 [label="Mom_10 <= 0.0\nmse = 0.0\nsamples = 2\nvalue = -0.0"] ;
522 -> 523 ;
524 [label="mse = 0.0\nsamples = 1\nvalue = -0.0"] ;
523 -> 524 ;
525 [label="mse = 0.0\nsamples = 1\nvalue = -0.0"] ;
523 -> 525 ;
526 [label="MVA Norm <= 0.7\nmse = 0.0\nsamples = 2\nvalue = -0.0"] ;
522 -> 526 ;
527 [label="mse = 0.0\nsamples = 1\nvalue = -0.0"] ;
526 -> 527 ;
528 [label="mse = 0.0\nsamples = 1\nvalue = -0.0"] ;
526 -> 528 ;
529 [label="Mom_05 <= 0.0\nmse = 0.0\nsamples = 3\nvalue = -0.0"] ;
521 -> 529 ;
530 [label="mse = 0.0\nsamples = 1\nvalue = -0.0"] ;
529 -> 530 ;
531 [label="Mom_05 <= 0.0\nmse = 0.0\nsamples = 2\nvalue = -0.0"] ;
529 -> 531 ;
532 [label="mse = 0.0\nsamples = 1\nvalue = -0.0"] ;
531 -> 532 ;
533 [label="mse = 0.0\nsamples = 1\nvalue = -0.0"] ;
531 -> 533 ;
534 [label="Mom_10 <= 0.1\nmse = 0.0\nsamples = 6\nvalue = -0.1"] ;
516 -> 534 ;
535 [label="Mom_20 <= 0.0\nmse = 0.0\nsamples = 4\nvalue = -0.1"] ;
534 -> 535 ;
536 [label="Mom_01 <= 0.0\nmse = 0.0\nsamples = 2\nvalue = -0.1"] ;
535 -> 536 ;
537 [label="mse = 0.0\nsamples = 1\nvalue = -0.1"] ;
536 -> 537 ;
538 [label="mse = -0.0\nsamples = 1\nvalue = -0.0"] ;
536 -> 538 ;
539 [label="Mom_05 <= 0.0\nmse = 0.0\nsamples = 2\nvalue = -0.1"] ;
535 -> 539 ;
540 [label="mse = 0.0\nsamples = 1\nvalue = -0.1"] ;
539 -> 540 ;
541 [label="mse = 0.0\nsamples = 1\nvalue = -0.1"] ;
539 -> 541 ;
542 [label="Mom_05 <= 0.0\nmse = 0.0\nsamples = 2\nvalue = -0.0"] ;
534 -> 542 ;
543 [label="mse = 0.0\nsamples = 1\nvalue = -0.0"] ;
542 -> 543 ;
544 [label="mse = 0.0\nsamples = 1\nvalue = -0.0"] ;
542 -> 544 ;
545 [label="MVA Norm <= -0.3\nmse = 0.0\nsamples = 16\nvalue = -0.0"] ;
515 -> 545 ;
546 [label="mse = 0.0\nsamples = 1\nvalue = -0.1"] ;
545 -> 546 ;
547 [label="Mom_20 <= 0.0\nmse = 0.0\nsamples = 15\nvalue = -0.0"] ;
545 -> 547 ;
548 [label="Mom_20 <= 0.0\nmse = 0.0\nsamples = 4\nvalue = 0.0"] ;
547 -> 548 ;
549 [label="Mom_10 <= 0.0\nmse = 0.0\nsamples = 3\nvalue = 0.0"] ;
548 -> 549 ;
550 [label="mse = 0.0\nsamples = 1\nvalue = 0.0"] ;
549 -> 550 ;
551 [label="Mom_05 <= 0.1\nmse = 0.0\nsamples = 2\nvalue = 0.0"] ;
549 -> 551 ;
552 [label="mse = 0.0\nsamples = 1\nvalue = 0.0"] ;
551 -> 552 ;
553 [label="mse = 0.0\nsamples = 1\nvalue = 0.0"] ;
551 -> 553 ;
554 [label="mse = -0.0\nsamples = 1\nvalue = 0.1"] ;
548 -> 554 ;
555 [label="Mom_01 <= 0.0\nmse = 0.0\nsamples = 11\nvalue = -0.0"] ;
547 -> 555 ;
556 [label="Mom_10 <= 0.1\nmse = 0.0\nsamples = 9\nvalue = -0.0"] ;
555 -> 556 ;
557 [label="MVA Norm <= 1.1\nmse = 0.0\nsamples = 5\nvalue = -0.0"] ;
556 -> 557 ;
558 [label="Mom_20 <= 0.0\nmse = 0.0\nsamples = 3\nvalue = -0.0"] ;
557 -> 558 ;
559 [label="mse = 0.0\nsamples = 1\nvalue = -0.0"] ;
558 -> 559 ;
560 [label="MVA Norm <= 0.8\nmse = 0.0\nsamples = 2\nvalue = -0.0"] ;
558 -> 560 ;
561 [label="mse = 0.0\nsamples = 1\nvalue = -0.0"] ;
560 -> 561 ;
562 [label="mse = 0.0\nsamples = 1\nvalue = -0.0"] ;
560 -> 562 ;
563 [label="Mom_05 <= 0.1\nmse = 0.0\nsamples = 2\nvalue = -0.0"] ;
557 -> 563 ;
564 [label="mse = 0.0\nsamples = 1\nvalue = -0.0"] ;
563 -> 564 ;
565 [label="mse = 0.0\nsamples = 1\nvalue = -0.0"] ;
563 -> 565 ;
566 [label="MVA Norm <= 0.9\nmse = 0.0\nsamples = 4\nvalue = -0.0"] ;
556 -> 566 ;
567 [label="mse = 0.0\nsamples = 1\nvalue = 0.0"] ;
566 -> 567 ;
568 [label="MVA Norm <= 1.1\nmse = 0.0\nsamples = 3\nvalue = -0.0"] ;
566 -> 568 ;
569 [label="mse = 0.0\nsamples = 1\nvalue = -0.0"] ;
568 -> 569 ;
570 [label="Mom_05 <= 0.1\nmse = 0.0\nsamples = 2\nvalue = -0.0"] ;
568 -> 570 ;
571 [label="mse = 0.0\nsamples = 1\nvalue = -0.0"] ;
570 -> 571 ;
572 [label="mse = 0.0\nsamples = 1\nvalue = -0.0"] ;
570 -> 572 ;
573 [label="MVA Norm <= 1.1\nmse = 0.0\nsamples = 2\nvalue = -0.0"] ;
555 -> 573 ;
574 [label="mse = 0.0\nsamples = 1\nvalue = -0.0"] ;
573 -> 574 ;
575 [label="mse = 0.0\nsamples = 1\nvalue = -0.0"] ;
573 -> 575 ;
576 [label="Mom_05 <= 0.1\nmse = 0.0\nsamples = 5\nvalue = -0.0"] ;
514 -> 576 ;
577 [label="mse = 0.0\nsamples = 1\nvalue = -0.1"] ;
576 -> 577 ;
578 [label="Mom_01 <= 0.0\nmse = 0.0\nsamples = 4\nvalue = -0.0"] ;
576 -> 578 ;
579 [label="MVA Norm <= 0.9\nmse = 0.0\nsamples = 2\nvalue = -0.0"] ;
578 -> 579 ;
580 [label="mse = 0.0\nsamples = 1\nvalue = -0.0"] ;
579 -> 580 ;
581 [label="mse = 0.0\nsamples = 1\nvalue = -0.0"] ;
579 -> 581 ;
582 [label="Mom_01 <= 0.0\nmse = 0.0\nsamples = 2\nvalue = -0.1"] ;
578 -> 582 ;
583 [label="mse = 0.0\nsamples = 1\nvalue = -0.1"] ;
582 -> 583 ;
584 [label="mse = 0.0\nsamples = 1\nvalue = -0.1"] ;
582 -> 584 ;
585 [label="Mom_10 <= 0.0\nmse = 0.0\nsamples = 11\nvalue = 0.0"] ;
451 -> 585 ;
586 [label="Mom_20 <= -0.0\nmse = 0.0\nsamples = 2\nvalue = -0.0"] ;
585 -> 586 ;
587 [label="mse = 0.0\nsamples = 1\nvalue = -0.0"] ;
586 -> 587 ;
588 [label="mse = 0.0\nsamples = 1\nvalue = -0.0"] ;
586 -> 588 ;
589 [label="Mom_20 <= 0.1\nmse = 0.0\nsamples = 9\nvalue = 0.0"] ;
585 -> 589 ;
590 [label="Mom_05 <= 0.1\nmse = 0.0\nsamples = 2\nvalue = 0.1"] ;
589 -> 590 ;
591 [label="mse = 0.0\nsamples = 1\nvalue = 0.1"] ;
590 -> 591 ;
592 [label="mse = -0.0\nsamples = 1\nvalue = 0.1"] ;
590 -> 592 ;
593 [label="Mom_01 <= 0.0\nmse = 0.0\nsamples = 7\nvalue = 0.0"] ;
589 -> 593 ;
594 [label="MVA Norm <= 0.8\nmse = 0.0\nsamples = 4\nvalue = 0.0"] ;
593 -> 594 ;
595 [label="Mom_05 <= 0.1\nmse = 0.0\nsamples = 2\nvalue = 0.0"] ;
594 -> 595 ;
596 [label="mse = 0.0\nsamples = 1\nvalue = 0.0"] ;
595 -> 596 ;
597 [label="mse = 0.0\nsamples = 1\nvalue = 0.0"] ;
595 -> 597 ;
598 [label="Mom_01 <= -0.0\nmse = 0.0\nsamples = 2\nvalue = 0.0"] ;
594 -> 598 ;
599 [label="mse = 0.0\nsamples = 1\nvalue = 0.0"] ;
598 -> 599 ;
600 [label="mse = 0.0\nsamples = 1\nvalue = 0.0"] ;
598 -> 600 ;
601 [label="Mom_10 <= 0.1\nmse = 0.0\nsamples = 3\nvalue = -0.0"] ;
593 -> 601 ;
602 [label="mse = 0.0\nsamples = 1\nvalue = -0.0"] ;
601 -> 602 ;
603 [label="MVA Norm <= 1.2\nmse = 0.0\nsamples = 2\nvalue = 0.0"] ;
601 -> 603 ;
604 [label="mse = 0.0\nsamples = 1\nvalue = -0.0"] ;
603 -> 604 ;
605 [label="mse = -0.0\nsamples = 1\nvalue = 0.0"] ;
603 -> 605 ;
606 [label="mse = 0.0\nsamples = 1\nvalue = -0.1"] ;
450 -> 606 ;
}