digraph Tree {
node [shape=box, style="rounded", color="black", fontname=helvetica] ;
edge [fontname=helvetica] ;
0 [label="Mom_20 <= -0.3\nmse = 0.0\nsamples = 480\nvalue = 0.0"] ;
1 [label="mse = 0.0\nsamples = 1\nvalue = 0.2"] ;
0 -> 1 [labeldistance=2.5, labelangle=45, headlabel="True"] ;
2 [label="Mom_05 <= 0.0\nmse = 0.0\nsamples = 479\nvalue = 0.0"] ;
0 -> 2 [labeldistance=2.5, labelangle=-45, headlabel="False"] ;
3 [label="Mom_05 <= -0.1\nmse = 0.0\nsamples = 378\nvalue = 0.0"] ;
2 -> 3 ;
4 [label="Mom_20 <= -0.1\nmse = 0.0\nsamples = 6\nvalue = -0.1"] ;
3 -> 4 ;
5 [label="MVA Norm <= -0.5\nmse = 0.0\nsamples = 4\nvalue = -0.0"] ;
4 -> 5 ;
6 [label="Mom_10 <= -0.1\nmse = 0.0\nsamples = 3\nvalue = -0.0"] ;
5 -> 6 ;
7 [label="Mom_10 <= -0.2\nmse = 0.0\nsamples = 2\nvalue = -0.0"] ;
6 -> 7 ;
8 [label="mse = 0.0\nsamples = 1\nvalue = -0.0"] ;
7 -> 8 ;
9 [label="mse = 0.0\nsamples = 1\nvalue = -0.0"] ;
7 -> 9 ;
10 [label="mse = 0.0\nsamples = 1\nvalue = -0.0"] ;
6 -> 10 ;
11 [label="mse = -0.0\nsamples = 1\nvalue = 0.0"] ;
5 -> 11 ;
12 [label="Mom_20 <= -0.1\nmse = 0.0\nsamples = 2\nvalue = -0.2"] ;
4 -> 12 ;
13 [label="mse = 0.0\nsamples = 1\nvalue = -0.2"] ;
12 -> 13 ;
14 [label="mse = 0.0\nsamples = 1\nvalue = -0.2"] ;
12 -> 14 ;
15 [label="Mom_05 <= -0.0\nmse = 0.0\nsamples = 372\nvalue = 0.0"] ;
3 -> 15 ;
16 [label="Mom_10 <= -0.0\nmse = 0.0\nsamples = 70\nvalue = 0.0"] ;
15 -> 16 ;
17 [label="Mom_10 <= -0.0\nmse = 0.0\nsamples = 56\nvalue = 0.0"] ;
16 -> 17 ;
18 [label="Mom_10 <= -0.0\nmse = 0.0\nsamples = 48\nvalue = 0.0"] ;
17 -> 18 ;
19 [label="Mom_05 <= -0.0\nmse = 0.0\nsamples = 46\nvalue = 0.0"] ;
18 -> 19 ;
20 [label="Mom_01 <= -0.0\nmse = 0.0\nsamples = 26\nvalue = 0.0"] ;
19 -> 20 ;
21 [label="Mom_10 <= -0.1\nmse = 0.0\nsamples = 6\nvalue = 0.0"] ;
20 -> 21 ;
22 [label="MVA Norm <= -0.7\nmse = 0.0\nsamples = 2\nvalue = 0.0"] ;
21 -> 22 ;
23 [label="mse = 0.0\nsamples = 1\nvalue = 0.1"] ;
22 -> 23 ;
24 [label="mse = -0.0\nsamples = 1\nvalue = 0.0"] ;
22 -> 24 ;
25 [label="Mom_20 <= -0.0\nmse = 0.0\nsamples = 4\nvalue = -0.0"] ;
21 -> 25 ;
26 [label="Mom_05 <= -0.1\nmse = 0.0\nsamples = 3\nvalue = -0.0"] ;
25 -> 26 ;
27 [label="mse = 0.0\nsamples = 1\nvalue = -0.0"] ;
26 -> 27 ;
28 [label="MVA Norm <= -0.6\nmse = 0.0\nsamples = 2\nvalue = -0.0"] ;
26 -> 28 ;
29 [label="mse = 0.0\nsamples = 1\nvalue = -0.0"] ;
28 -> 29 ;
30 [label="mse = -0.0\nsamples = 1\nvalue = -0.0"] ;
28 -> 30 ;
31 [label="mse = -0.0\nsamples = 1\nvalue = 0.0"] ;
25 -> 31 ;
32 [label="Mom_20 <= -0.0\nmse = 0.0\nsamples = 20\nvalue = 0.0"] ;
20 -> 32 ;
33 [label="MVA Norm <= -0.6\nmse = 0.0\nsamples = 14\nvalue = 0.0"] ;
32 -> 33 ;
34 [label="Mom_20 <= -0.0\nmse = 0.0\nsamples = 5\nvalue = 0.0"] ;
33 -> 34 ;
35 [label="Mom_05 <= -0.1\nmse = 0.0\nsamples = 3\nvalue = 0.1"] ;
34 -> 35 ;
36 [label="Mom_20 <= -0.1\nmse = 0.0\nsamples = 2\nvalue = 0.0"] ;
35 -> 36 ;
37 [label="mse = 0.0\nsamples = 1\nvalue = 0.0"] ;
36 -> 37 ;
38 [label="mse = 0.0\nsamples = 1\nvalue = 0.1"] ;
36 -> 38 ;
39 [label="mse = -0.0\nsamples = 1\nvalue = 0.1"] ;
35 -> 39 ;
40 [label="MVA Norm <= -0.7\nmse = 0.0\nsamples = 2\nvalue = 0.0"] ;
34 -> 40 ;
41 [label="mse = 0.0\nsamples = 1\nvalue = 0.0"] ;
40 -> 41 ;
42 [label="mse = 0.0\nsamples = 1\nvalue = 0.0"] ;
40 -> 42 ;
43 [label="MVA Norm <= -0.0\nmse = 0.0\nsamples = 9\nvalue = 0.0"] ;
33 -> 43 ;
44 [label="Mom_10 <= -0.0\nmse = 0.0\nsamples = 7\nvalue = 0.0"] ;
43 -> 44 ;
45 [label="Mom_20 <= -0.1\nmse = 0.0\nsamples = 5\nvalue = 0.0"] ;
44 -> 45 ;
46 [label="Mom_20 <= -0.1\nmse = 0.0\nsamples = 4\nvalue = 0.0"] ;
45 -> 46 ;
47 [label="mse = 0.0\nsamples = 1\nvalue = 0.0"] ;
46 -> 47 ;
48 [label="Mom_10 <= -0.1\nmse = 0.0\nsamples = 3\nvalue = 0.0"] ;
46 -> 48 ;
49 [label="mse = 0.0\nsamples = 1\nvalue = 0.0"] ;
48 -> 49 ;
50 [label="Mom_01 <= -0.0\nmse = 0.0\nsamples = 2\nvalue = 0.0"] ;
48 -> 50 ;
51 [label="mse = 0.0\nsamples = 1\nvalue = 0.0"] ;
50 -> 51 ;
52 [label="mse = 0.0\nsamples = 1\nvalue = 0.0"] ;
50 -> 52 ;
53 [label="mse = -0.0\nsamples = 1\nvalue = 0.0"] ;
45 -> 53 ;
54 [label="Mom_20 <= -0.0\nmse = 0.0\nsamples = 2\nvalue = 0.0"] ;
44 -> 54 ;
55 [label="mse = 0.0\nsamples = 1\nvalue = -0.0"] ;
54 -> 55 ;
56 [label="mse = 0.0\nsamples = 1\nvalue = 0.0"] ;
54 -> 56 ;
57 [label="MVA Norm <= 0.2\nmse = 0.0\nsamples = 2\nvalue = 0.0"] ;
43 -> 57 ;
58 [label="mse = 0.0\nsamples = 1\nvalue = 0.0"] ;
57 -> 58 ;
59 [label="mse = -0.0\nsamples = 1\nvalue = 0.0"] ;
57 -> 59 ;
60 [label="Mom_01 <= -0.0\nmse = 0.0\nsamples = 6\nvalue = 0.1"] ;
32 -> 60 ;
61 [label="Mom_01 <= -0.0\nmse = 0.0\nsamples = 4\nvalue = 0.0"] ;
60 -> 61 ;
62 [label="mse = 0.0\nsamples = 1\nvalue = 0.1"] ;
61 -> 62 ;
63 [label="Mom_01 <= -0.0\nmse = 0.0\nsamples = 3\nvalue = 0.0"] ;
61 -> 63 ;
64 [label="mse = 0.0\nsamples = 1\nvalue = 0.0"] ;
63 -> 64 ;
65 [label="mse = 0.0\nsamples = 2\nvalue = 0.0"] ;
63 -> 65 ;
66 [label="Mom_20 <= -0.0\nmse = 0.0\nsamples = 2\nvalue = 0.1"] ;
60 -> 66 ;
67 [label="mse = 0.0\nsamples = 1\nvalue = 0.1"] ;
66 -> 67 ;
68 [label="mse = 0.0\nsamples = 1\nvalue = 0.1"] ;
66 -> 68 ;
69 [label="Mom_05 <= -0.0\nmse = 0.0\nsamples = 20\nvalue = 0.0"] ;
19 -> 69 ;
70 [label="MVA Norm <= 0.1\nmse = 0.0\nsamples = 19\nvalue = 0.0"] ;
69 -> 70 ;
71 [label="Mom_10 <= -0.0\nmse = 0.0\nsamples = 18\nvalue = 0.0"] ;
70 -> 71 ;
72 [label="Mom_05 <= -0.0\nmse = 0.0\nsamples = 11\nvalue = 0.0"] ;
71 -> 72 ;
73 [label="mse = 0.0\nsamples = 1\nvalue = -0.0"] ;
72 -> 73 ;
74 [label="Mom_05 <= -0.0\nmse = 0.0\nsamples = 10\nvalue = 0.0"] ;
72 -> 74 ;
75 [label="mse = 0.0\nsamples = 1\nvalue = 0.0"] ;
74 -> 75 ;
76 [label="MVA Norm <= -0.5\nmse = 0.0\nsamples = 9\nvalue = 0.0"] ;
74 -> 76 ;
77 [label="Mom_10 <= -0.0\nmse = 0.0\nsamples = 3\nvalue = 0.0"] ;
76 -> 77 ;
78 [label="mse = 0.0\nsamples = 1\nvalue = 0.0"] ;
77 -> 78 ;
79 [label="Mom_01 <= -0.0\nmse = 0.0\nsamples = 2\nvalue = 0.0"] ;
77 -> 79 ;
80 [label="mse = 0.0\nsamples = 1\nvalue = 0.0"] ;
79 -> 80 ;
81 [label="mse = 0.0\nsamples = 1\nvalue = 0.0"] ;
79 -> 81 ;
82 [label="MVA Norm <= -0.2\nmse = 0.0\nsamples = 6\nvalue = 0.0"] ;
76 -> 82 ;
83 [label="MVA Norm <= -0.3\nmse = 0.0\nsamples = 5\nvalue = 0.0"] ;
82 -> 83 ;
84 [label="Mom_10 <= -0.0\nmse = 0.0\nsamples = 4\nvalue = 0.0"] ;
83 -> 84 ;
85 [label="mse = 0.0\nsamples = 3\nvalue = 0.0"] ;
84 -> 85 ;
86 [label="mse = 0.0\nsamples = 1\nvalue = 0.0"] ;
84 -> 86 ;
87 [label="mse = 0.0\nsamples = 1\nvalue = 0.0"] ;
83 -> 87 ;
88 [label="mse = -0.0\nsamples = 1\nvalue = 0.0"] ;
82 -> 88 ;
89 [label="Mom_05 <= -0.0\nmse = 0.0\nsamples = 7\nvalue = 0.0"] ;
71 -> 89 ;
90 [label="Mom_10 <= -0.0\nmse = 0.0\nsamples = 4\nvalue = -0.0"] ;
89 -> 90 ;
91 [label="Mom_10 <= -0.0\nmse = 0.0\nsamples = 2\nvalue = -0.0"] ;
90 -> 91 ;
92 [label="mse = 0.0\nsamples = 1\nvalue = 0.0"] ;
91 -> 92 ;
93 [label="mse = 0.0\nsamples = 1\nvalue = -0.0"] ;
91 -> 93 ;
94 [label="Mom_20 <= -0.0\nmse = 0.0\nsamples = 2\nvalue = -0.0"] ;
90 -> 94 ;
95 [label="mse = 0.0\nsamples = 1\nvalue = -0.0"] ;
94 -> 95 ;
96 [label="mse = 0.0\nsamples = 1\nvalue = -0.0"] ;
94 -> 96 ;
97 [label="Mom_10 <= -0.0\nmse = 0.0\nsamples = 3\nvalue = 0.0"] ;
89 -> 97 ;
98 [label="mse = 0.0\nsamples = 1\nvalue = -0.0"] ;
97 -> 98 ;
99 [label="Mom_10 <= -0.0\nmse = 0.0\nsamples = 2\nvalue = 0.0"] ;
97 -> 99 ;
100 [label="mse = 0.0\nsamples = 1\nvalue = 0.0"] ;
99 -> 100 ;
101 [label="mse = 0.0\nsamples = 1\nvalue = 0.0"] ;
99 -> 101 ;
102 [label="mse = -0.0\nsamples = 1\nvalue = -0.0"] ;
70 -> 102 ;
103 [label="mse = 0.0\nsamples = 1\nvalue = 0.1"] ;
69 -> 103 ;
104 [label="MVA Norm <= -0.6\nmse = 0.0\nsamples = 2\nvalue = -0.0"] ;
18 -> 104 ;
105 [label="mse = 0.0\nsamples = 1\nvalue = 0.0"] ;
104 -> 105 ;
106 [label="mse = 0.0\nsamples = 1\nvalue = -0.0"] ;
104 -> 106 ;
107 [label="Mom_10 <= -0.0\nmse = 0.0\nsamples = 8\nvalue = 0.0"] ;
17 -> 107 ;
108 [label="MVA Norm <= -0.3\nmse = 0.0\nsamples = 2\nvalue = 0.1"] ;
107 -> 108 ;
109 [label="mse = 0.0\nsamples = 1\nvalue = 0.1"] ;
108 -> 109 ;
110 [label="mse = 0.0\nsamples = 1\nvalue = 0.1"] ;
108 -> 110 ;
111 [label="Mom_10 <= -0.0\nmse = 0.0\nsamples = 6\nvalue = 0.0"] ;
107 -> 111 ;
112 [label="Mom_20 <= 0.0\nmse = 0.0\nsamples = 5\nvalue = 0.0"] ;
111 -> 112 ;
113 [label="Mom_01 <= -0.0\nmse = 0.0\nsamples = 3\nvalue = 0.0"] ;
112 -> 113 ;
114 [label="mse = 0.0\nsamples = 1\nvalue = 0.0"] ;
113 -> 114 ;
115 [label="Mom_10 <= -0.0\nmse = 0.0\nsamples = 2\nvalue = 0.0"] ;
113 -> 115 ;
116 [label="mse = 0.0\nsamples = 1\nvalue = 0.0"] ;
115 -> 116 ;
117 [label="mse = 0.0\nsamples = 1\nvalue = 0.0"] ;
115 -> 117 ;
118 [label="Mom_10 <= -0.0\nmse = 0.0\nsamples = 2\nvalue = 0.0"] ;
112 -> 118 ;
119 [label="mse = 0.0\nsamples = 1\nvalue = 0.0"] ;
118 -> 119 ;
120 [label="mse = 0.0\nsamples = 1\nvalue = 0.0"] ;
118 -> 120 ;
121 [label="mse = 0.0\nsamples = 1\nvalue = 0.1"] ;
111 -> 121 ;
122 [label="MVA Norm <= -0.4\nmse = 0.0\nsamples = 14\nvalue = -0.0"] ;
16 -> 122 ;
123 [label="Mom_05 <= -0.0\nmse = 0.0\nsamples = 10\nvalue = -0.0"] ;
122 -> 123 ;
124 [label="Mom_01 <= -0.0\nmse = 0.0\nsamples = 3\nvalue = -0.1"] ;
123 -> 124 ;
125 [label="mse = 0.0\nsamples = 1\nvalue = -0.0"] ;
124 -> 125 ;
126 [label="Mom_10 <= 0.0\nmse = 0.0\nsamples = 2\nvalue = -0.1"] ;
124 -> 126 ;
127 [label="mse = 0.0\nsamples = 1\nvalue = -0.1"] ;
126 -> 127 ;
128 [label="mse = 0.0\nsamples = 1\nvalue = -0.1"] ;
126 -> 128 ;
129 [label="Mom_05 <= -0.0\nmse = 0.0\nsamples = 7\nvalue = -0.0"] ;
123 -> 129 ;
130 [label="MVA Norm <= -0.7\nmse = 0.0\nsamples = 6\nvalue = -0.0"] ;
129 -> 130 ;
131 [label="Mom_20 <= -0.0\nmse = 0.0\nsamples = 3\nvalue = 0.0"] ;
130 -> 131 ;
132 [label="mse = 0.0\nsamples = 1\nvalue = -0.0"] ;
131 -> 132 ;
133 [label="Mom_05 <= -0.0\nmse = 0.0\nsamples = 2\nvalue = 0.0"] ;
131 -> 133 ;
134 [label="mse = 0.0\nsamples = 1\nvalue = 0.0"] ;
133 -> 134 ;
135 [label="mse = -0.0\nsamples = 1\nvalue = 0.0"] ;
133 -> 135 ;
136 [label="Mom_10 <= 0.0\nmse = 0.0\nsamples = 3\nvalue = -0.0"] ;
130 -> 136 ;
137 [label="mse = 0.0\nsamples = 1\nvalue = -0.0"] ;
136 -> 137 ;
138 [label="Mom_01 <= 0.0\nmse = 0.0\nsamples = 2\nvalue = -0.0"] ;
136 -> 138 ;
139 [label="mse = 0.0\nsamples = 1\nvalue = -0.0"] ;
138 -> 139 ;
140 [label="mse = -0.0\nsamples = 1\nvalue = -0.0"] ;
138 -> 140 ;
141 [label="mse = 0.0\nsamples = 1\nvalue = -0.1"] ;
129 -> 141 ;
142 [label="Mom_10 <= 0.0\nmse = 0.0\nsamples = 4\nvalue = 0.1"] ;
122 -> 142 ;
143 [label="Mom_10 <= 0.0\nmse = 0.0\nsamples = 2\nvalue = 0.0"] ;
142 -> 143 ;
144 [label="mse = 0.0\nsamples = 1\nvalue = 0.0"] ;
143 -> 144 ;
145 [label="mse = 0.0\nsamples = 1\nvalue = 0.0"] ;
143 -> 145 ;
146 [label="Mom_05 <= -0.0\nmse = 0.0\nsamples = 2\nvalue = 0.1"] ;
142 -> 146 ;
147 [label="mse = 0.0\nsamples = 1\nvalue = 0.1"] ;
146 -> 147 ;
148 [label="mse = -0.0\nsamples = 1\nvalue = 0.1"] ;
146 -> 148 ;
149 [label="Mom_20 <= -0.2\nmse = 0.0\nsamples = 302\nvalue = 0.0"] ;
15 -> 149 ;
150 [label="Mom_20 <= -0.2\nmse = 0.0\nsamples = 2\nvalue = -0.1"] ;
149 -> 150 ;
151 [label="mse = 0.0\nsamples = 1\nvalue = -0.1"] ;
150 -> 151 ;
152 [label="mse = 0.0\nsamples = 1\nvalue = -0.1"] ;
150 -> 152 ;
153 [label="Mom_20 <= -0.1\nmse = 0.0\nsamples = 300\nvalue = 0.0"] ;
149 -> 153 ;
154 [label="Mom_20 <= -0.1\nmse = 0.0\nsamples = 5\nvalue = 0.1"] ;
153 -> 154 ;
155 [label="Mom_05 <= 0.0\nmse = 0.0\nsamples = 4\nvalue = 0.0"] ;
154 -> 155 ;
156 [label="Mom_10 <= -0.0\nmse = 0.0\nsamples = 3\nvalue = 0.0"] ;
155 -> 156 ;
157 [label="mse = 0.0\nsamples = 1\nvalue = 0.0"] ;
156 -> 157 ;
158 [label="Mom_10 <= 0.0\nmse = 0.0\nsamples = 2\nvalue = 0.0"] ;
156 -> 158 ;
159 [label="mse = 0.0\nsamples = 1\nvalue = 0.0"] ;
158 -> 159 ;
160 [label="mse = -0.0\nsamples = 1\nvalue = 0.0"] ;
158 -> 160 ;
161 [label="mse = 0.0\nsamples = 1\nvalue = 0.1"] ;
155 -> 161 ;
162 [label="mse = 0.0\nsamples = 1\nvalue = 0.1"] ;
154 -> 162 ;
163 [label="Mom_01 <= -0.0\nmse = 0.0\nsamples = 295\nvalue = 0.0"] ;
153 -> 163 ;
164 [label="Mom_20 <= 0.0\nmse = 0.0\nsamples = 4\nvalue = -0.0"] ;
163 -> 164 ;
165 [label="MVA Norm <= -0.6\nmse = 0.0\nsamples = 2\nvalue = -0.1"] ;
164 -> 165 ;
166 [label="mse = 0.0\nsamples = 1\nvalue = -0.1"] ;
165 -> 166 ;
167 [label="mse = -0.0\nsamples = 1\nvalue = -0.1"] ;
165 -> 167 ;
168 [label="MVA Norm <= -0.5\nmse = 0.0\nsamples = 2\nvalue = 0.0"] ;
164 -> 168 ;
169 [label="mse = 0.0\nsamples = 1\nvalue = 0.1"] ;
168 -> 169 ;
170 [label="mse = 0.0\nsamples = 1\nvalue = -0.0"] ;
168 -> 170 ;
171 [label="Mom_01 <= -0.0\nmse = 0.0\nsamples = 291\nvalue = 0.0"] ;
163 -> 171 ;
172 [label="Mom_20 <= 0.0\nmse = 0.0\nsamples = 4\nvalue = 0.0"] ;
171 -> 172 ;
173 [label="Mom_05 <= 0.0\nmse = 0.0\nsamples = 2\nvalue = 0.1"] ;
172 -> 173 ;
174 [label="mse = 0.0\nsamples = 1\nvalue = 0.1"] ;
173 -> 174 ;
175 [label="mse = 0.0\nsamples = 1\nvalue = 0.0"] ;
173 -> 175 ;
176 [label="MVA Norm <= -0.2\nmse = 0.0\nsamples = 2\nvalue = 0.0"] ;
172 -> 176 ;
177 [label="mse = 0.0\nsamples = 1\nvalue = 0.0"] ;
176 -> 177 ;
178 [label="mse = 0.0\nsamples = 1\nvalue = -0.0"] ;
176 -> 178 ;
179 [label="Mom_10 <= -0.0\nmse = 0.0\nsamples = 287\nvalue = 0.0"] ;
171 -> 179 ;
180 [label="MVA Norm <= 0.6\nmse = 0.0\nsamples = 18\nvalue = -0.0"] ;
179 -> 180 ;
181 [label="Mom_20 <= -0.0\nmse = 0.0\nsamples = 15\nvalue = -0.0"] ;
180 -> 181 ;
182 [label="MVA Norm <= -0.0\nmse = 0.0\nsamples = 7\nvalue = 0.0"] ;
181 -> 182 ;
183 [label="Mom_10 <= -0.0\nmse = 0.0\nsamples = 5\nvalue = 0.0"] ;
182 -> 183 ;
184 [label="MVA Norm <= -0.7\nmse = 0.0\nsamples = 4\nvalue = 0.0"] ;
183 -> 184 ;
185 [label="mse = 0.0\nsamples = 1\nvalue = -0.0"] ;
184 -> 185 ;
186 [label="Mom_20 <= -0.1\nmse = 0.0\nsamples = 3\nvalue = 0.0"] ;
184 -> 186 ;
187 [label="MVA Norm <= -0.5\nmse = 0.0\nsamples = 2\nvalue = 0.0"] ;
186 -> 187 ;
188 [label="mse = 0.0\nsamples = 1\nvalue = 0.0"] ;
187 -> 188 ;
189 [label="mse = 0.0\nsamples = 1\nvalue = 0.0"] ;
187 -> 189 ;
190 [label="mse = 0.0\nsamples = 1\nvalue = 0.0"] ;
186 -> 190 ;
191 [label="mse = 0.0\nsamples = 1\nvalue = 0.0"] ;
183 -> 191 ;
192 [label="Mom_05 <= -0.0\nmse = 0.0\nsamples = 2\nvalue = -0.0"] ;
182 -> 192 ;
193 [label="mse = 0.0\nsamples = 1\nvalue = -0.0"] ;
192 -> 193 ;
194 [label="mse = 0.0\nsamples = 1\nvalue = -0.0"] ;
192 -> 194 ;
195 [label="Mom_10 <= -0.0\nmse = 0.0\nsamples = 8\nvalue = -0.0"] ;
181 -> 195 ;
196 [label="Mom_01 <= 0.0\nmse = 0.0\nsamples = 4\nvalue = -0.0"] ;
195 -> 196 ;
197 [label="MVA Norm <= -0.4\nmse = 0.0\nsamples = 3\nvalue = -0.0"] ;
196 -> 197 ;
198 [label="mse = 0.0\nsamples = 1\nvalue = 0.0"] ;
197 -> 198 ;
199 [label="Mom_05 <= 0.0\nmse = 0.0\nsamples = 2\nvalue = -0.0"] ;
197 -> 199 ;
200 [label="mse = 0.0\nsamples = 1\nvalue = -0.0"] ;
199 -> 200 ;
201 [label="mse = -0.0\nsamples = 1\nvalue = -0.0"] ;
199 -> 201 ;
202 [label="mse = 0.0\nsamples = 1\nvalue = -0.0"] ;
196 -> 202 ;
203 [label="Mom_10 <= -0.0\nmse = 0.0\nsamples = 4\nvalue = -0.0"] ;
195 -> 203 ;
204 [label="Mom_01 <= -0.0\nmse = 0.0\nsamples = 3\nvalue = -0.0"] ;
203 -> 204 ;
205 [label="mse = 0.0\nsamples = 1\nvalue = -0.0"] ;
204 -> 205 ;
206 [label="Mom_20 <= -0.0\nmse = 0.0\nsamples = 2\nvalue = -0.0"] ;
204 -> 206 ;
207 [label="mse = 0.0\nsamples = 1\nvalue = -0.0"] ;
206 -> 207 ;
208 [label="mse = 0.0\nsamples = 1\nvalue = -0.0"] ;
206 -> 208 ;
209 [label="mse = -0.0\nsamples = 1\nvalue = -0.0"] ;
203 -> 209 ;
210 [label="MVA Norm <= 0.7\nmse = 0.0\nsamples = 3\nvalue = -0.0"] ;
180 -> 210 ;
211 [label="Mom_05 <= -0.0\nmse = 0.0\nsamples = 2\nvalue = -0.1"] ;
210 -> 211 ;
212 [label="mse = 0.0\nsamples = 1\nvalue = -0.0"] ;
211 -> 212 ;
213 [label="mse = 0.0\nsamples = 1\nvalue = -0.1"] ;
211 -> 213 ;
214 [label="mse = 0.0\nsamples = 1\nvalue = -0.0"] ;
210 -> 214 ;
215 [label="Mom_10 <= 0.0\nmse = 0.0\nsamples = 269\nvalue = 0.0"] ;
179 -> 215 ;
216 [label="Mom_05 <= 0.0\nmse = 0.0\nsamples = 142\nvalue = 0.0"] ;
215 -> 216 ;
217 [label="Mom_20 <= 0.0\nmse = 0.0\nsamples = 122\nvalue = 0.0"] ;
216 -> 217 ;
218 [label="Mom_05 <= -0.0\nmse = 0.0\nsamples = 103\nvalue = 0.0"] ;
217 -> 218 ;
219 [label="Mom_05 <= -0.0\nmse = 0.0\nsamples = 27\nvalue = 0.0"] ;
218 -> 219 ;
220 [label="Mom_20 <= -0.0\nmse = 0.0\nsamples = 4\nvalue = -0.0"] ;
219 -> 220 ;
221 [label="mse = 0.0\nsamples = 1\nvalue = 0.0"] ;
220 -> 221 ;
222 [label="Mom_20 <= -0.0\nmse = 0.0\nsamples = 3\nvalue = -0.0"] ;
220 -> 222 ;
223 [label="mse = 0.0\nsamples = 1\nvalue = -0.0"] ;
222 -> 223 ;
224 [label="Mom_20 <= 0.0\nmse = 0.0\nsamples = 2\nvalue = -0.0"] ;
222 -> 224 ;
225 [label="mse = 0.0\nsamples = 1\nvalue = -0.0"] ;
224 -> 225 ;
226 [label="mse = -0.0\nsamples = 1\nvalue = -0.0"] ;
224 -> 226 ;
227 [label="Mom_20 <= 0.0\nmse = 0.0\nsamples = 23\nvalue = 0.0"] ;
219 -> 227 ;
228 [label="MVA Norm <= -0.5\nmse = 0.0\nsamples = 22\nvalue = 0.0"] ;
227 -> 228 ;
229 [label="Mom_05 <= -0.0\nmse = 0.0\nsamples = 12\nvalue = 0.0"] ;
228 -> 229 ;
230 [label="Mom_05 <= -0.0\nmse = 0.0\nsamples = 8\nvalue = 0.0"] ;
229 -> 230 ;
231 [label="mse = 0.0\nsamples = 1\nvalue = 0.0"] ;
230 -> 231 ;
232 [label="MVA Norm <= -0.5\nmse = 0.0\nsamples = 7\nvalue = 0.0"] ;
230 -> 232 ;
233 [label="Mom_05 <= -0.0\nmse = 0.0\nsamples = 6\nvalue = 0.0"] ;
232 -> 233 ;
234 [label="Mom_10 <= 0.0\nmse = 0.0\nsamples = 5\nvalue = 0.0"] ;
233 -> 234 ;
235 [label="MVA Norm <= -0.7\nmse = 0.0\nsamples = 3\nvalue = -0.0"] ;
234 -> 235 ;
236 [label="mse = 0.0\nsamples = 1\nvalue = 0.0"] ;
235 -> 236 ;
237 [label="Mom_10 <= -0.0\nmse = 0.0\nsamples = 2\nvalue = -0.0"] ;
235 -> 237 ;
238 [label="mse = 0.0\nsamples = 1\nvalue = -0.0"] ;
237 -> 238 ;
239 [label="mse = 0.0\nsamples = 1\nvalue = -0.0"] ;
237 -> 239 ;
240 [label="Mom_10 <= 0.0\nmse = 0.0\nsamples = 2\nvalue = 0.0"] ;
234 -> 240 ;
241 [label="mse = 0.0\nsamples = 1\nvalue = 0.0"] ;
240 -> 241 ;
242 [label="mse = 0.0\nsamples = 1\nvalue = 0.0"] ;
240 -> 242 ;
243 [label="mse = 0.0\nsamples = 1\nvalue = 0.0"] ;
233 -> 243 ;
244 [label="mse = 0.0\nsamples = 1\nvalue = 0.0"] ;
232 -> 244 ;
245 [label="Mom_01 <= -0.0\nmse = 0.0\nsamples = 4\nvalue = 0.0"] ;
229 -> 245 ;
246 [label="Mom_10 <= -0.0\nmse = 0.0\nsamples = 3\nvalue = 0.0"] ;
245 -> 246 ;
247 [label="Mom_01 <= -0.0\nmse = 0.0\nsamples = 2\nvalue = 0.0"] ;
246 -> 247 ;
248 [label="mse = 0.0\nsamples = 1\nvalue = 0.0"] ;
247 -> 248 ;
249 [label="mse = 0.0\nsamples = 1\nvalue = 0.0"] ;
247 -> 249 ;
250 [label="mse = -0.0\nsamples = 1\nvalue = 0.0"] ;
246 -> 250 ;
251 [label="mse = -0.0\nsamples = 1\nvalue = 0.0"] ;
245 -> 251 ;
252 [label="Mom_05 <= -0.0\nmse = 0.0\nsamples = 10\nvalue = 0.0"] ;
228 -> 252 ;
253 [label="Mom_20 <= 0.0\nmse = 0.0\nsamples = 9\nvalue = 0.0"] ;
252 -> 253 ;
254 [label="Mom_20 <= -0.0\nmse = 0.0\nsamples = 8\nvalue = 0.0"] ;
253 -> 254 ;
255 [label="MVA Norm <= 0.1\nmse = 0.0\nsamples = 4\nvalue = 0.0"] ;
254 -> 255 ;
256 [label="Mom_20 <= -0.1\nmse = 0.0\nsamples = 3\nvalue = 0.0"] ;
255 -> 256 ;
257 [label="mse = 0.0\nsamples = 1\nvalue = 0.0"] ;
256 -> 257 ;
258 [label="Mom_10 <= -0.0\nmse = 0.0\nsamples = 2\nvalue = 0.0"] ;
256 -> 258 ;
259 [label="mse = 0.0\nsamples = 1\nvalue = 0.0"] ;
258 -> 259 ;
260 [label="mse = 0.0\nsamples = 1\nvalue = 0.0"] ;
258 -> 260 ;
261 [label="mse = 0.0\nsamples = 1\nvalue = 0.0"] ;
255 -> 261 ;
262 [label="MVA Norm <= -0.4\nmse = 0.0\nsamples = 4\nvalue = 0.0"] ;
254 -> 262 ;
263 [label="mse = 0.0\nsamples = 1\nvalue = 0.0"] ;
262 -> 263 ;
264 [label="Mom_10 <= -0.0\nmse = 0.0\nsamples = 3\nvalue = 0.0"] ;
262 -> 264 ;
265 [label="mse = 0.0\nsamples = 1\nvalue = 0.0"] ;
264 -> 265 ;
266 [label="mse = 0.0\nsamples = 2\nvalue = 0.0"] ;
264 -> 266 ;
267 [label="mse = -0.0\nsamples = 1\nvalue = 0.0"] ;
253 -> 267 ;
268 [label="mse = -0.0\nsamples = 1\nvalue = 0.0"] ;
252 -> 268 ;
269 [label="mse = 0.0\nsamples = 1\nvalue = -0.0"] ;
227 -> 269 ;
270 [label="Mom_10 <= -0.0\nmse = 0.0\nsamples = 76\nvalue = -0.0"] ;
218 -> 270 ;
271 [label="Mom_01 <= 0.0\nmse = 0.0\nsamples = 4\nvalue = -0.0"] ;
270 -> 271 ;
272 [label="Mom_10 <= -0.0\nmse = 0.0\nsamples = 3\nvalue = -0.0"] ;
271 -> 272 ;
273 [label="Mom_01 <= 0.0\nmse = 0.0\nsamples = 2\nvalue = -0.0"] ;
272 -> 273 ;
274 [label="mse = 0.0\nsamples = 1\nvalue = -0.0"] ;
273 -> 274 ;
275 [label="mse = 0.0\nsamples = 1\nvalue = -0.0"] ;
273 -> 275 ;
276 [label="mse = 0.0\nsamples = 1\nvalue = -0.0"] ;
272 -> 276 ;
277 [label="mse = -0.0\nsamples = 1\nvalue = 0.0"] ;
271 -> 277 ;
278 [label="Mom_05 <= -0.0\nmse = 0.0\nsamples = 72\nvalue = 0.0"] ;
270 -> 278 ;
279 [label="Mom_10 <= -0.0\nmse = 0.0\nsamples = 8\nvalue = -0.0"] ;
278 -> 279 ;
280 [label="Mom_05 <= -0.0\nmse = 0.0\nsamples = 3\nvalue = 0.0"] ;
279 -> 280 ;
281 [label="mse = 0.0\nsamples = 1\nvalue = -0.0"] ;
280 -> 281 ;
282 [label="Mom_05 <= -0.0\nmse = 0.0\nsamples = 2\nvalue = 0.0"] ;
280 -> 282 ;
283 [label="mse = 0.0\nsamples = 1\nvalue = 0.0"] ;
282 -> 283 ;
284 [label="mse = 0.0\nsamples = 1\nvalue = 0.0"] ;
282 -> 284 ;
285 [label="MVA Norm <= 0.3\nmse = 0.0\nsamples = 5\nvalue = -0.0"] ;
279 -> 285 ;
286 [label="MVA Norm <= -0.6\nmse = 0.0\nsamples = 4\nvalue = -0.0"] ;
285 -> 286 ;
287 [label="mse = 0.0\nsamples = 1\nvalue = -0.0"] ;
286 -> 287 ;
288 [label="Mom_20 <= 0.0\nmse = 0.0\nsamples = 3\nvalue = -0.0"] ;
286 -> 288 ;
289 [label="Mom_20 <= 0.0\nmse = 0.0\nsamples = 2\nvalue = -0.0"] ;
288 -> 289 ;
290 [label="mse = 0.0\nsamples = 1\nvalue = -0.0"] ;
289 -> 290 ;
291 [label="mse = -0.0\nsamples = 1\nvalue = -0.0"] ;
289 -> 291 ;
292 [label="mse = 0.0\nsamples = 1\nvalue = -0.0"] ;
288 -> 292 ;
293 [label="mse = -0.0\nsamples = 1\nvalue = -0.0"] ;
285 -> 293 ;
294 [label="Mom_01 <= -0.0\nmse = 0.0\nsamples = 64\nvalue = 0.0"] ;
278 -> 294 ;
295 [label="Mom_05 <= -0.0\nmse = 0.0\nsamples = 8\nvalue = -0.0"] ;
294 -> 295 ;
296 [label="mse = 0.0\nsamples = 1\nvalue = -0.0"] ;
295 -> 296 ;
297 [label="Mom_20 <= 0.0\nmse = 0.0\nsamples = 7\nvalue = -0.0"] ;
295 -> 297 ;
298 [label="MVA Norm <= -0.6\nmse = 0.0\nsamples = 5\nvalue = -0.0"] ;
297 -> 298 ;
299 [label="Mom_05 <= -0.0\nmse = 0.0\nsamples = 2\nvalue = -0.0"] ;
298 -> 299 ;
300 [label="mse = 0.0\nsamples = 1\nvalue = -0.0"] ;
299 -> 300 ;
301 [label="mse = -0.0\nsamples = 1\nvalue = -0.0"] ;
299 -> 301 ;
302 [label="Mom_01 <= -0.0\nmse = 0.0\nsamples = 3\nvalue = -0.0"] ;
298 -> 302 ;
303 [label="Mom_05 <= 0.0\nmse = 0.0\nsamples = 2\nvalue = -0.0"] ;
302 -> 303 ;
304 [label="mse = 0.0\nsamples = 1\nvalue = -0.0"] ;
303 -> 304 ;
305 [label="mse = 0.0\nsamples = 1\nvalue = -0.0"] ;
303 -> 305 ;
306 [label="mse = 0.0\nsamples = 1\nvalue = -0.0"] ;
302 -> 306 ;
307 [label="Mom_10 <= -0.0\nmse = 0.0\nsamples = 2\nvalue = 0.0"] ;
297 -> 307 ;
308 [label="mse = 0.0\nsamples = 1\nvalue = 0.0"] ;
307 -> 308 ;
309 [label="mse = 0.0\nsamples = 1\nvalue = 0.0"] ;
307 -> 309 ;
310 [label="Mom_01 <= -0.0\nmse = 0.0\nsamples = 56\nvalue = 0.0"] ;
294 -> 310 ;
311 [label="mse = 0.0\nsamples = 1\nvalue = 0.1"] ;
310 -> 311 ;
312 [label="Mom_20 <= 0.0\nmse = 0.0\nsamples = 55\nvalue = 0.0"] ;
310 -> 312 ;
313 [label="Mom_20 <= 0.0\nmse = 0.0\nsamples = 34\nvalue = 0.0"] ;
312 -> 313 ;
314 [label="MVA Norm <= 0.4\nmse = 0.0\nsamples = 33\nvalue = 0.0"] ;
313 -> 314 ;
315 [label="MVA Norm <= 0.3\nmse = 0.0\nsamples = 24\nvalue = 0.0"] ;
314 -> 315 ;
316 [label="Mom_10 <= -0.0\nmse = 0.0\nsamples = 23\nvalue = 0.0"] ;
315 -> 316 ;
317 [label="Mom_01 <= 0.0\nmse = 0.0\nsamples = 2\nvalue = 0.0"] ;
316 -> 317 ;
318 [label="mse = 0.0\nsamples = 1\nvalue = 0.0"] ;
317 -> 318 ;
319 [label="mse = 0.0\nsamples = 1\nvalue = 0.0"] ;
317 -> 319 ;
320 [label="Mom_20 <= -0.0\nmse = 0.0\nsamples = 21\nvalue = 0.0"] ;
316 -> 320 ;
321 [label="Mom_05 <= 0.0\nmse = 0.0\nsamples = 6\nvalue = 0.0"] ;
320 -> 321 ;
322 [label="MVA Norm <= 0.0\nmse = 0.0\nsamples = 4\nvalue = 0.0"] ;
321 -> 322 ;
323 [label="MVA Norm <= -0.0\nmse = 0.0\nsamples = 2\nvalue = 0.1"] ;
322 -> 323 ;
324 [label="mse = 0.0\nsamples = 1\nvalue = 0.1"] ;
323 -> 324 ;
325 [label="mse = 0.0\nsamples = 1\nvalue = 0.1"] ;
323 -> 325 ;
326 [label="Mom_05 <= 0.0\nmse = 0.0\nsamples = 2\nvalue = 0.0"] ;
322 -> 326 ;
327 [label="mse = 0.0\nsamples = 1\nvalue = 0.0"] ;
326 -> 327 ;
328 [label="mse = 0.0\nsamples = 1\nvalue = 0.0"] ;
326 -> 328 ;
329 [label="Mom_20 <= -0.0\nmse = 0.0\nsamples = 2\nvalue = -0.0"] ;
321 -> 329 ;
330 [label="mse = -0.0\nsamples = 1\nvalue = -0.0"] ;
329 -> 330 ;
331 [label="mse = 0.0\nsamples = 1\nvalue = -0.0"] ;
329 -> 331 ;
332 [label="MVA Norm <= -0.0\nmse = 0.0\nsamples = 15\nvalue = 0.0"] ;
320 -> 332 ;
333 [label="MVA Norm <= -0.1\nmse = 0.0\nsamples = 11\nvalue = 0.0"] ;
332 -> 333 ;
334 [label="Mom_20 <= 0.0\nmse = 0.0\nsamples = 10\nvalue = 0.0"] ;
333 -> 334 ;
335 [label="Mom_10 <= 0.0\nmse = 0.0\nsamples = 6\nvalue = 0.0"] ;
334 -> 335 ;
336 [label="Mom_10 <= -0.0\nmse = 0.0\nsamples = 3\nvalue = 0.0"] ;
335 -> 336 ;
337 [label="mse = 0.0\nsamples = 1\nvalue = 0.0"] ;
336 -> 337 ;
338 [label="Mom_01 <= -0.0\nmse = 0.0\nsamples = 2\nvalue = 0.0"] ;
336 -> 338 ;
339 [label="mse = 0.0\nsamples = 1\nvalue = 0.0"] ;
338 -> 339 ;
340 [label="mse = 0.0\nsamples = 1\nvalue = 0.0"] ;
338 -> 340 ;
341 [label="Mom_01 <= -0.0\nmse = 0.0\nsamples = 3\nvalue = 0.0"] ;
335 -> 341 ;
342 [label="Mom_20 <= 0.0\nmse = 0.0\nsamples = 2\nvalue = 0.0"] ;
341 -> 342 ;
343 [label="mse = 0.0\nsamples = 1\nvalue = 0.0"] ;
342 -> 343 ;
344 [label="mse = 0.0\nsamples = 1\nvalue = 0.0"] ;
342 -> 344 ;
345 [label="mse = 0.0\nsamples = 1\nvalue = 0.0"] ;
341 -> 345 ;
346 [label="Mom_20 <= 0.0\nmse = 0.0\nsamples = 4\nvalue = 0.0"] ;
334 -> 346 ;
347 [label="Mom_20 <= 0.0\nmse = 0.0\nsamples = 2\nvalue = -0.0"] ;
346 -> 347 ;
348 [label="mse = 0.0\nsamples = 1\nvalue = -0.0"] ;
347 -> 348 ;
349 [label="mse = 0.0\nsamples = 1\nvalue = -0.0"] ;
347 -> 349 ;
350 [label="Mom_01 <= -0.0\nmse = 0.0\nsamples = 2\nvalue = 0.0"] ;
346 -> 350 ;
351 [label="mse = 0.0\nsamples = 1\nvalue = 0.0"] ;
350 -> 351 ;
352 [label="mse = -0.0\nsamples = 1\nvalue = 0.0"] ;
350 -> 352 ;
353 [label="mse = -0.0\nsamples = 1\nvalue = 0.0"] ;
333 -> 353 ;
354 [label="MVA Norm <= 0.2\nmse = 0.0\nsamples = 4\nvalue = -0.0"] ;
332 -> 354 ;
355 [label="Mom_05 <= -0.0\nmse = 0.0\nsamples = 3\nvalue = -0.0"] ;
354 -> 355 ;
356 [label="mse = 0.0\nsamples = 1\nvalue = -0.0"] ;
355 -> 356 ;
357 [label="MVA Norm <= 0.0\nmse = 0.0\nsamples = 2\nvalue = -0.0"] ;
355 -> 357 ;
358 [label="mse = 0.0\nsamples = 1\nvalue = -0.0"] ;
357 -> 358 ;
359 [label="mse = -0.0\nsamples = 1\nvalue = -0.0"] ;
357 -> 359 ;
360 [label="mse = -0.0\nsamples = 1\nvalue = 0.0"] ;
354 -> 360 ;
361 [label="mse = 0.0\nsamples = 1\nvalue = -0.1"] ;
315 -> 361 ;
362 [label="MVA Norm <= 0.8\nmse = 0.0\nsamples = 9\nvalue = 0.0"] ;
314 -> 362 ;
363 [label="Mom_20 <= 0.0\nmse = 0.0\nsamples = 6\nvalue = 0.0"] ;
362 -> 363 ;
364 [label="Mom_10 <= -0.0\nmse = 0.0\nsamples = 5\nvalue = 0.0"] ;
363 -> 364 ;
365 [label="MVA Norm <= 0.6\nmse = 0.0\nsamples = 2\nvalue = 0.0"] ;
364 -> 365 ;
366 [label="mse = 0.0\nsamples = 1\nvalue = 0.0"] ;
365 -> 366 ;
367 [label="mse = 0.0\nsamples = 1\nvalue = 0.0"] ;
365 -> 367 ;
368 [label="Mom_20 <= -0.0\nmse = 0.0\nsamples = 3\nvalue = 0.0"] ;
364 -> 368 ;
369 [label="mse = 0.0\nsamples = 1\nvalue = 0.0"] ;
368 -> 369 ;
370 [label="Mom_10 <= -0.0\nmse = 0.0\nsamples = 2\nvalue = 0.0"] ;
368 -> 370 ;
371 [label="mse = 0.0\nsamples = 1\nvalue = 0.0"] ;
370 -> 371 ;
372 [label="mse = -0.0\nsamples = 1\nvalue = 0.0"] ;
370 -> 372 ;
373 [label="mse = -0.0\nsamples = 1\nvalue = 0.0"] ;
363 -> 373 ;
374 [label="Mom_01 <= 0.0\nmse = 0.0\nsamples = 3\nvalue = 0.0"] ;
362 -> 374 ;
375 [label="mse = 0.0\nsamples = 1\nvalue = 0.0"] ;
374 -> 375 ;
376 [label="Mom_01 <= 0.0\nmse = 0.0\nsamples = 2\nvalue = 0.0"] ;
374 -> 376 ;
377 [label="mse = 0.0\nsamples = 1\nvalue = 0.0"] ;
376 -> 377 ;
378 [label="mse = 0.0\nsamples = 1\nvalue = 0.0"] ;
376 -> 378 ;
379 [label="mse = 0.0\nsamples = 1\nvalue = 0.1"] ;
313 -> 379 ;
380 [label="Mom_20 <= 0.0\nmse = 0.0\nsamples = 21\nvalue = -0.0"] ;
312 -> 380 ;
381 [label="MVA Norm <= 0.0\nmse = 0.0\nsamples = 2\nvalue = -0.0"] ;
380 -> 381 ;
382 [label="mse = 0.0\nsamples = 1\nvalue = -0.0"] ;
381 -> 382 ;
383 [label="mse = 0.0\nsamples = 1\nvalue = -0.0"] ;
381 -> 383 ;
384 [label="Mom_01 <= -0.0\nmse = 0.0\nsamples = 19\nvalue = -0.0"] ;
380 -> 384 ;
385 [label="Mom_05 <= -0.0\nmse = 0.0\nsamples = 3\nvalue = 0.0"] ;
384 -> 385 ;
386 [label="mse = 0.0\nsamples = 1\nvalue = 0.0"] ;
385 -> 386 ;
387 [label="Mom_01 <= -0.0\nmse = 0.0\nsamples = 2\nvalue = 0.0"] ;
385 -> 387 ;
388 [label="mse = 0.0\nsamples = 1\nvalue = 0.0"] ;
387 -> 388 ;
389 [label="mse = -0.0\nsamples = 1\nvalue = 0.0"] ;
387 -> 389 ;
390 [label="Mom_05 <= 0.0\nmse = 0.0\nsamples = 16\nvalue = -0.0"] ;
384 -> 390 ;
391 [label="Mom_01 <= -0.0\nmse = 0.0\nsamples = 14\nvalue = -0.0"] ;
390 -> 391 ;
392 [label="mse = 0.0\nsamples = 1\nvalue = -0.0"] ;
391 -> 392 ;
393 [label="Mom_20 <= 0.0\nmse = 0.0\nsamples = 13\nvalue = 0.0"] ;
391 -> 393 ;
394 [label="Mom_10 <= 0.0\nmse = 0.0\nsamples = 4\nvalue = 0.0"] ;
393 -> 394 ;
395 [label="Mom_01 <= 0.0\nmse = 0.0\nsamples = 3\nvalue = 0.0"] ;
394 -> 395 ;
396 [label="mse = 0.0\nsamples = 1\nvalue = 0.0"] ;
395 -> 396 ;
397 [label="Mom_01 <= 0.0\nmse = 0.0\nsamples = 2\nvalue = 0.0"] ;
395 -> 397 ;
398 [label="mse = 0.0\nsamples = 1\nvalue = 0.0"] ;
397 -> 398 ;
399 [label="mse = 0.0\nsamples = 1\nvalue = 0.0"] ;
397 -> 399 ;
400 [label="mse = 0.0\nsamples = 1\nvalue = 0.0"] ;
394 -> 400 ;
401 [label="Mom_20 <= 0.0\nmse = 0.0\nsamples = 9\nvalue = -0.0"] ;
393 -> 401 ;
402 [label="Mom_05 <= 0.0\nmse = 0.0\nsamples = 2\nvalue = -0.0"] ;
401 -> 402 ;
403 [label="mse = 0.0\nsamples = 1\nvalue = -0.0"] ;
402 -> 403 ;
404 [label="mse = 0.0\nsamples = 1\nvalue = -0.0"] ;
402 -> 404 ;
405 [label="Mom_20 <= 0.0\nmse = 0.0\nsamples = 7\nvalue = 0.0"] ;
401 -> 405 ;
406 [label="Mom_10 <= 0.0\nmse = 0.0\nsamples = 6\nvalue = 0.0"] ;
405 -> 406 ;
407 [label="Mom_20 <= 0.0\nmse = 0.0\nsamples = 5\nvalue = 0.0"] ;
406 -> 407 ;
408 [label="Mom_01 <= 0.0\nmse = 0.0\nsamples = 3\nvalue = 0.0"] ;
407 -> 408 ;
409 [label="MVA Norm <= 0.2\nmse = 0.0\nsamples = 2\nvalue = 0.0"] ;
408 -> 409 ;
410 [label="mse = -0.0\nsamples = 1\nvalue = 0.0"] ;
409 -> 410 ;
411 [label="mse = 0.0\nsamples = 1\nvalue = 0.0"] ;
409 -> 411 ;
412 [label="mse = 0.0\nsamples = 1\nvalue = 0.0"] ;
408 -> 412 ;
413 [label="Mom_05 <= 0.0\nmse = 0.0\nsamples = 2\nvalue = 0.0"] ;
407 -> 413 ;
414 [label="mse = 0.0\nsamples = 1\nvalue = 0.0"] ;
413 -> 414 ;
415 [label="mse = 0.0\nsamples = 1\nvalue = 0.0"] ;
413 -> 415 ;
416 [label="mse = 0.0\nsamples = 1\nvalue = -0.0"] ;
406 -> 416 ;
417 [label="mse = 0.0\nsamples = 1\nvalue = -0.0"] ;
405 -> 417 ;
418 [label="Mom_20 <= 0.0\nmse = 0.0\nsamples = 2\nvalue = -0.0"] ;
390 -> 418 ;
419 [label="mse = 0.0\nsamples = 1\nvalue = -0.0"] ;
418 -> 419 ;
420 [label="mse = 0.0\nsamples = 1\nvalue = -0.0"] ;
418 -> 420 ;
421 [label="MVA Norm <= -0.5\nmse = 0.0\nsamples = 19\nvalue = 0.0"] ;
217 -> 421 ;
422 [label="Mom_10 <= 0.0\nmse = 0.0\nsamples = 2\nvalue = 0.1"] ;
421 -> 422 ;
423 [label="mse = 0.0\nsamples = 1\nvalue = 0.1"] ;
422 -> 423 ;
424 [label="mse = 0.0\nsamples = 1\nvalue = 0.0"] ;
422 -> 424 ;
425 [label="Mom_20 <= 0.1\nmse = 0.0\nsamples = 17\nvalue = 0.0"] ;
421 -> 425 ;
426 [label="Mom_10 <= -0.0\nmse = 0.0\nsamples = 14\nvalue = 0.0"] ;
425 -> 426 ;
427 [label="Mom_10 <= -0.0\nmse = 0.0\nsamples = 4\nvalue = 0.0"] ;
426 -> 427 ;
428 [label="Mom_10 <= -0.0\nmse = 0.0\nsamples = 3\nvalue = 0.0"] ;
427 -> 428 ;
429 [label="mse = 0.0\nsamples = 1\nvalue = 0.0"] ;
428 -> 429 ;
430 [label="MVA Norm <= 0.3\nmse = 0.0\nsamples = 2\nvalue = 0.0"] ;
428 -> 430 ;
431 [label="mse = 0.0\nsamples = 1\nvalue = 0.0"] ;
430 -> 431 ;
432 [label="mse = 0.0\nsamples = 1\nvalue = 0.0"] ;
430 -> 432 ;
433 [label="mse = 0.0\nsamples = 1\nvalue = 0.0"] ;
427 -> 433 ;
434 [label="MVA Norm <= -0.4\nmse = 0.0\nsamples = 10\nvalue = 0.0"] ;
426 -> 434 ;
435 [label="mse = 0.0\nsamples = 1\nvalue = -0.0"] ;
434 -> 435 ;
436 [label="Mom_01 <= 0.0\nmse = 0.0\nsamples = 9\nvalue = 0.0"] ;
434 -> 436 ;
437 [label="Mom_10 <= 0.0\nmse = 0.0\nsamples = 3\nvalue = 0.0"] ;
436 -> 437 ;
438 [label="Mom_01 <= -0.0\nmse = 0.0\nsamples = 2\nvalue = 0.0"] ;
437 -> 438 ;
439 [label="mse = 0.0\nsamples = 1\nvalue = 0.0"] ;
438 -> 439 ;
440 [label="mse = 0.0\nsamples = 1\nvalue = -0.0"] ;
438 -> 440 ;
441 [label="mse = 0.0\nsamples = 1\nvalue = 0.0"] ;
437 -> 441 ;
442 [label="Mom_20 <= 0.1\nmse = 0.0\nsamples = 6\nvalue = 0.0"] ;
436 -> 442 ;
443 [label="MVA Norm <= 0.6\nmse = 0.0\nsamples = 5\nvalue = 0.0"] ;
442 -> 443 ;
444 [label="MVA Norm <= 0.2\nmse = 0.0\nsamples = 4\nvalue = 0.0"] ;
443 -> 444 ;
445 [label="MVA Norm <= -0.2\nmse = 0.0\nsamples = 2\nvalue = 0.0"] ;
444 -> 445 ;
446 [label="mse = 0.0\nsamples = 1\nvalue = 0.0"] ;
445 -> 446 ;
447 [label="mse = 0.0\nsamples = 1\nvalue = 0.0"] ;
445 -> 447 ;
448 [label="mse = 0.0\nsamples = 2\nvalue = 0.0"] ;
444 -> 448 ;
449 [label="mse = -0.0\nsamples = 1\nvalue = 0.0"] ;
443 -> 449 ;
450 [label="mse = 0.0\nsamples = 1\nvalue = -0.0"] ;
442 -> 450 ;
451 [label="Mom_05 <= 0.0\nmse = 0.0\nsamples = 3\nvalue = -0.0"] ;
425 -> 451 ;
452 [label="Mom_20 <= 0.1\nmse = 0.0\nsamples = 2\nvalue = -0.0"] ;
451 -> 452 ;
453 [label="mse = 0.0\nsamples = 1\nvalue = -0.0"] ;
452 -> 453 ;
454 [label="mse = 0.0\nsamples = 1\nvalue = -0.0"] ;
452 -> 454 ;
455 [label="mse = 0.0\nsamples = 1\nvalue = -0.0"] ;
451 -> 455 ;
456 [label="Mom_01 <= -0.0\nmse = 0.0\nsamples = 20\nvalue = 0.0"] ;
216 -> 456 ;
457 [label="Mom_10 <= 0.0\nmse = 0.0\nsamples = 3\nvalue = 0.0"] ;
456 -> 457 ;
458 [label="Mom_20 <= 0.0\nmse = 0.0\nsamples = 2\nvalue = 0.0"] ;
457 -> 458 ;
459 [label="mse = 0.0\nsamples = 1\nvalue = 0.0"] ;
458 -> 459 ;
460 [label="mse = 0.0\nsamples = 1\nvalue = 0.0"] ;
458 -> 460 ;
461 [label="mse = 0.0\nsamples = 1\nvalue = 0.1"] ;
457 -> 461 ;
462 [label="Mom_01 <= 0.0\nmse = 0.0\nsamples = 17\nvalue = 0.0"] ;
456 -> 462 ;
463 [label="Mom_10 <= 0.0\nmse = 0.0\nsamples = 13\nvalue = 0.0"] ;
462 -> 463 ;
464 [label="Mom_20 <= -0.0\nmse = 0.0\nsamples = 7\nvalue = 0.0"] ;
463 -> 464 ;
465 [label="Mom_20 <= -0.0\nmse = 0.0\nsamples = 3\nvalue = 0.0"] ;
464 -> 465 ;
466 [label="mse = 0.0\nsamples = 1\nvalue = 0.0"] ;
465 -> 466 ;
467 [label="Mom_20 <= -0.0\nmse = 0.0\nsamples = 2\nvalue = 0.0"] ;
465 -> 467 ;
468 [label="mse = 0.0\nsamples = 1\nvalue = 0.0"] ;
467 -> 468 ;
469 [label="mse = 0.0\nsamples = 1\nvalue = 0.0"] ;
467 -> 469 ;
470 [label="Mom_10 <= 0.0\nmse = 0.0\nsamples = 4\nvalue = 0.0"] ;
464 -> 470 ;
471 [label="Mom_20 <= 0.0\nmse = 0.0\nsamples = 2\nvalue = 0.0"] ;
470 -> 471 ;
472 [label="mse = 0.0\nsamples = 1\nvalue = 0.0"] ;
471 -> 472 ;
473 [label="mse = 0.0\nsamples = 1\nvalue = 0.0"] ;
471 -> 473 ;
474 [label="Mom_05 <= 0.0\nmse = 0.0\nsamples = 2\nvalue = 0.0"] ;
470 -> 474 ;
475 [label="mse = 0.0\nsamples = 1\nvalue = 0.0"] ;
474 -> 475 ;
476 [label="mse = -0.0\nsamples = 1\nvalue = 0.0"] ;
474 -> 476 ;
477 [label="Mom_20 <= 0.0\nmse = 0.0\nsamples = 6\nvalue = 0.0"] ;
463 -> 477 ;
478 [label="Mom_20 <= 0.0\nmse = 0.0\nsamples = 5\nvalue = 0.0"] ;
477 -> 478 ;
479 [label="Mom_10 <= 0.0\nmse = 0.0\nsamples = 3\nvalue = 0.0"] ;
478 -> 479 ;
480 [label="mse = 0.0\nsamples = 1\nvalue = 0.0"] ;
479 -> 480 ;
481 [label="mse = 0.0\nsamples = 2\nvalue = 0.0"] ;
479 -> 481 ;
482 [label="Mom_01 <= 0.0\nmse = 0.0\nsamples = 2\nvalue = 0.0"] ;
478 -> 482 ;
483 [label="mse = 0.0\nsamples = 1\nvalue = 0.0"] ;
482 -> 483 ;
484 [label="mse = -0.0\nsamples = 1\nvalue = 0.0"] ;
482 -> 484 ;
485 [label="mse = 0.0\nsamples = 1\nvalue = -0.0"] ;
477 -> 485 ;
486 [label="Mom_05 <= 0.0\nmse = 0.0\nsamples = 4\nvalue = 0.0"] ;
462 -> 486 ;
487 [label="MVA Norm <= 0.9\nmse = 0.0\nsamples = 2\nvalue = 0.0"] ;
486 -> 487 ;
488 [label="mse = 0.0\nsamples = 1\nvalue = 0.0"] ;
487 -> 488 ;
489 [label="mse = 0.0\nsamples = 1\nvalue = 0.0"] ;
487 -> 489 ;
490 [label="Mom_05 <= 0.0\nmse = 0.0\nsamples = 2\nvalue = 0.0"] ;
486 -> 490 ;
491 [label="mse = 0.0\nsamples = 1\nvalue = 0.1"] ;
490 -> 491 ;
492 [label="mse = 0.0\nsamples = 1\nvalue = 0.0"] ;
490 -> 492 ;
493 [label="Mom_20 <= 0.0\nmse = 0.0\nsamples = 127\nvalue = 0.0"] ;
215 -> 493 ;
494 [label="Mom_05 <= -0.0\nmse = 0.0\nsamples = 36\nvalue = 0.0"] ;
493 -> 494 ;
495 [label="Mom_05 <= -0.0\nmse = 0.0\nsamples = 2\nvalue = 0.1"] ;
494 -> 495 ;
496 [label="mse = 0.0\nsamples = 1\nvalue = -0.0"] ;
495 -> 496 ;
497 [label="mse = 0.0\nsamples = 1\nvalue = 0.1"] ;
495 -> 497 ;
498 [label="Mom_01 <= 0.0\nmse = 0.0\nsamples = 34\nvalue = 0.0"] ;
494 -> 498 ;
499 [label="Mom_20 <= 0.0\nmse = 0.0\nsamples = 14\nvalue = -0.0"] ;
498 -> 499 ;
500 [label="Mom_10 <= 0.0\nmse = 0.0\nsamples = 12\nvalue = -0.0"] ;
499 -> 500 ;
501 [label="Mom_01 <= -0.0\nmse = 0.0\nsamples = 4\nvalue = -0.0"] ;
500 -> 501 ;
502 [label="mse = 0.0\nsamples = 1\nvalue = -0.0"] ;
501 -> 502 ;
503 [label="Mom_05 <= 0.0\nmse = 0.0\nsamples = 3\nvalue = -0.0"] ;
501 -> 503 ;
504 [label="mse = 0.0\nsamples = 2\nvalue = -0.0"] ;
503 -> 504 ;
505 [label="mse = 0.0\nsamples = 1\nvalue = -0.0"] ;
503 -> 505 ;
506 [label="Mom_05 <= 0.0\nmse = 0.0\nsamples = 8\nvalue = -0.0"] ;
500 -> 506 ;
507 [label="MVA Norm <= 0.1\nmse = 0.0\nsamples = 5\nvalue = -0.0"] ;
506 -> 507 ;
508 [label="Mom_20 <= -0.0\nmse = 0.0\nsamples = 3\nvalue = -0.0"] ;
507 -> 508 ;
509 [label="mse = 0.0\nsamples = 1\nvalue = -0.0"] ;
508 -> 509 ;
510 [label="Mom_05 <= -0.0\nmse = 0.0\nsamples = 2\nvalue = 0.0"] ;
508 -> 510 ;
511 [label="mse = 0.0\nsamples = 1\nvalue = -0.0"] ;
510 -> 511 ;
512 [label="mse = 0.0\nsamples = 1\nvalue = 0.0"] ;
510 -> 512 ;
513 [label="Mom_01 <= -0.0\nmse = 0.0\nsamples = 2\nvalue = -0.0"] ;
507 -> 513 ;
514 [label="mse = 0.0\nsamples = 1\nvalue = -0.0"] ;
513 -> 514 ;
515 [label="mse = 0.0\nsamples = 1\nvalue = -0.0"] ;
513 -> 515 ;
516 [label="Mom_05 <= 0.0\nmse = 0.0\nsamples = 3\nvalue = 0.0"] ;
506 -> 516 ;
517 [label="Mom_20 <= 0.0\nmse = 0.0\nsamples = 2\nvalue = 0.0"] ;
516 -> 517 ;
518 [label="mse = 0.0\nsamples = 1\nvalue = 0.0"] ;
517 -> 518 ;
519 [label="mse = 0.0\nsamples = 1\nvalue = 0.0"] ;
517 -> 519 ;
520 [label="mse = 0.0\nsamples = 1\nvalue = -0.0"] ;
516 -> 520 ;
521 [label="MVA Norm <= -0.5\nmse = 0.0\nsamples = 2\nvalue = 0.0"] ;
499 -> 521 ;
522 [label="mse = 0.0\nsamples = 1\nvalue = 0.0"] ;
521 -> 522 ;
523 [label="mse = 0.0\nsamples = 1\nvalue = 0.0"] ;
521 -> 523 ;
524 [label="Mom_10 <= 0.0\nmse = 0.0\nsamples = 20\nvalue = 0.0"] ;
498 -> 524 ;
525 [label="Mom_05 <= -0.0\nmse = 0.0\nsamples = 8\nvalue = 0.0"] ;
524 -> 525 ;
526 [label="Mom_10 <= 0.0\nmse = 0.0\nsamples = 3\nvalue = -0.0"] ;
525 -> 526 ;
527 [label="mse = 0.0\nsamples = 1\nvalue = 0.0"] ;
526 -> 527 ;
528 [label="MVA Norm <= 0.6\nmse = 0.0\nsamples = 2\nvalue = -0.0"] ;
526 -> 528 ;
529 [label="mse = 0.0\nsamples = 1\nvalue = -0.0"] ;
528 -> 529 ;
530 [label="mse = 0.0\nsamples = 1\nvalue = -0.0"] ;
528 -> 530 ;
531 [label="MVA Norm <= 0.3\nmse = 0.0\nsamples = 5\nvalue = 0.0"] ;
525 -> 531 ;
532 [label="Mom_05 <= 0.0\nmse = 0.0\nsamples = 2\nvalue = 0.0"] ;
531 -> 532 ;
533 [label="mse = 0.0\nsamples = 1\nvalue = 0.0"] ;
532 -> 533 ;
534 [label="mse = -0.0\nsamples = 1\nvalue = 0.0"] ;
532 -> 534 ;
535 [label="Mom_20 <= -0.0\nmse = 0.0\nsamples = 3\nvalue = 0.0"] ;
531 -> 535 ;
536 [label="mse = 0.0\nsamples = 1\nvalue = 0.0"] ;
535 -> 536 ;
537 [label="Mom_01 <= 0.0\nmse = 0.0\nsamples = 2\nvalue = 0.0"] ;
535 -> 537 ;
538 [label="mse = 0.0\nsamples = 1\nvalue = 0.0"] ;
537 -> 538 ;
539 [label="mse = 0.0\nsamples = 1\nvalue = 0.0"] ;
537 -> 539 ;
540 [label="MVA Norm <= 0.6\nmse = 0.0\nsamples = 12\nvalue = 0.0"] ;
524 -> 540 ;
541 [label="Mom_20 <= -0.0\nmse = 0.0\nsamples = 6\nvalue = 0.0"] ;
540 -> 541 ;
542 [label="MVA Norm <= 0.5\nmse = 0.0\nsamples = 3\nvalue = 0.0"] ;
541 -> 542 ;
543 [label="MVA Norm <= 0.2\nmse = 0.0\nsamples = 2\nvalue = 0.0"] ;
542 -> 543 ;
544 [label="mse = 0.0\nsamples = 1\nvalue = 0.0"] ;
543 -> 544 ;
545 [label="mse = 0.0\nsamples = 1\nvalue = 0.0"] ;
543 -> 545 ;
546 [label="mse = -0.0\nsamples = 1\nvalue = 0.0"] ;
542 -> 546 ;
547 [label="Mom_01 <= 0.0\nmse = 0.0\nsamples = 3\nvalue = 0.1"] ;
541 -> 547 ;
548 [label="mse = 0.0\nsamples = 1\nvalue = 0.0"] ;
547 -> 548 ;
549 [label="Mom_20 <= -0.0\nmse = 0.0\nsamples = 2\nvalue = 0.1"] ;
547 -> 549 ;
550 [label="mse = 0.0\nsamples = 1\nvalue = 0.1"] ;
549 -> 550 ;
551 [label="mse = 0.0\nsamples = 1\nvalue = 0.1"] ;
549 -> 551 ;
552 [label="Mom_01 <= 0.0\nmse = 0.0\nsamples = 6\nvalue = 0.0"] ;
540 -> 552 ;
553 [label="Mom_05 <= 0.0\nmse = 0.0\nsamples = 2\nvalue = 0.0"] ;
552 -> 553 ;
554 [label="mse = 0.0\nsamples = 1\nvalue = 0.0"] ;
553 -> 554 ;
555 [label="mse = -0.0\nsamples = 1\nvalue = 0.0"] ;
553 -> 555 ;
556 [label="Mom_05 <= -0.0\nmse = 0.0\nsamples = 4\nvalue = 0.0"] ;
552 -> 556 ;
557 [label="mse = 0.0\nsamples = 1\nvalue = 0.0"] ;
556 -> 557 ;
558 [label="MVA Norm <= 0.7\nmse = 0.0\nsamples = 3\nvalue = 0.0"] ;
556 -> 558 ;
559 [label="mse = 0.0\nsamples = 1\nvalue = 0.0"] ;
558 -> 559 ;
560 [label="MVA Norm <= 0.7\nmse = 0.0\nsamples = 2\nvalue = 0.0"] ;
558 -> 560 ;
561 [label="mse = 0.0\nsamples = 1\nvalue = 0.0"] ;
560 -> 561 ;
562 [label="mse = 0.0\nsamples = 1\nvalue = -0.0"] ;
560 -> 562 ;
563 [label="Mom_05 <= 0.0\nmse = 0.0\nsamples = 91\nvalue = -0.0"] ;
493 -> 563 ;
564 [label="Mom_20 <= 0.1\nmse = 0.0\nsamples = 72\nvalue = -0.0"] ;
563 -> 564 ;
565 [label="Mom_10 <= 0.0\nmse = 0.0\nsamples = 33\nvalue = -0.0"] ;
564 -> 565 ;
566 [label="Mom_01 <= 0.0\nmse = 0.0\nsamples = 21\nvalue = -0.0"] ;
565 -> 566 ;
567 [label="Mom_05 <= -0.0\nmse = 0.0\nsamples = 17\nvalue = -0.0"] ;
566 -> 567 ;
568 [label="mse = 0.0\nsamples = 1\nvalue = -0.0"] ;
567 -> 568 ;
569 [label="Mom_05 <= -0.0\nmse = 0.0\nsamples = 16\nvalue = -0.0"] ;
567 -> 569 ;
570 [label="MVA Norm <= -0.0\nmse = 0.0\nsamples = 2\nvalue = 0.0"] ;
569 -> 570 ;
571 [label="mse = 0.0\nsamples = 1\nvalue = -0.0"] ;
570 -> 571 ;
572 [label="mse = 0.0\nsamples = 1\nvalue = 0.0"] ;
570 -> 572 ;
573 [label="Mom_05 <= 0.0\nmse = 0.0\nsamples = 14\nvalue = -0.0"] ;
569 -> 573 ;
574 [label="Mom_10 <= 0.0\nmse = 0.0\nsamples = 12\nvalue = -0.0"] ;
573 -> 574 ;
575 [label="Mom_10 <= 0.0\nmse = 0.0\nsamples = 4\nvalue = -0.0"] ;
574 -> 575 ;
576 [label="mse = 0.0\nsamples = 2\nvalue = -0.0"] ;
575 -> 576 ;
577 [label="mse = 0.0\nsamples = 2\nvalue = -0.0"] ;
575 -> 577 ;
578 [label="Mom_05 <= 0.0\nmse = 0.0\nsamples = 8\nvalue = -0.0"] ;
574 -> 578 ;
579 [label="Mom_10 <= 0.0\nmse = 0.0\nsamples = 4\nvalue = -0.0"] ;
578 -> 579 ;
580 [label="Mom_20 <= 0.0\nmse = 0.0\nsamples = 2\nvalue = -0.0"] ;
579 -> 580 ;
581 [label="mse = 0.0\nsamples = 1\nvalue = -0.0"] ;
580 -> 581 ;
582 [label="mse = 0.0\nsamples = 1\nvalue = 0.0"] ;
580 -> 582 ;
583 [label="Mom_20 <= 0.0\nmse = 0.0\nsamples = 2\nvalue = -0.0"] ;
579 -> 583 ;
584 [label="mse = 0.0\nsamples = 1\nvalue = -0.0"] ;
583 -> 584 ;
585 [label="mse = 0.0\nsamples = 1\nvalue = -0.0"] ;
583 -> 585 ;
586 [label="Mom_05 <= 0.0\nmse = 0.0\nsamples = 4\nvalue = -0.0"] ;
578 -> 586 ;
587 [label="mse = 0.0\nsamples = 1\nvalue = -0.0"] ;
586 -> 587 ;
588 [label="MVA Norm <= 0.5\nmse = 0.0\nsamples = 3\nvalue = -0.0"] ;
586 -> 588 ;
589 [label="Mom_20 <= 0.0\nmse = 0.0\nsamples = 2\nvalue = -0.0"] ;
588 -> 589 ;
590 [label="mse = 0.0\nsamples = 1\nvalue = -0.0"] ;
589 -> 590 ;
591 [label="mse = 0.0\nsamples = 1\nvalue = -0.0"] ;
589 -> 591 ;
592 [label="mse = -0.0\nsamples = 1\nvalue = -0.0"] ;
588 -> 592 ;
593 [label="Mom_05 <= 0.0\nmse = 0.0\nsamples = 2\nvalue = -0.0"] ;
573 -> 593 ;
594 [label="mse = 0.0\nsamples = 1\nvalue = -0.0"] ;
593 -> 594 ;
595 [label="mse = 0.0\nsamples = 1\nvalue = -0.0"] ;
593 -> 595 ;
596 [label="Mom_01 <= 0.0\nmse = 0.0\nsamples = 4\nvalue = 0.0"] ;
566 -> 596 ;
597 [label="mse = 0.0\nsamples = 1\nvalue = 0.1"] ;
596 -> 597 ;
598 [label="MVA Norm <= 0.8\nmse = 0.0\nsamples = 3\nvalue = 0.0"] ;
596 -> 598 ;
599 [label="MVA Norm <= 0.3\nmse = 0.0\nsamples = 2\nvalue = 0.0"] ;
598 -> 599 ;
600 [label="mse = 0.0\nsamples = 1\nvalue = 0.0"] ;
599 -> 600 ;
601 [label="mse = -0.0\nsamples = 1\nvalue = 0.0"] ;
599 -> 601 ;
602 [label="mse = 0.0\nsamples = 1\nvalue = -0.0"] ;
598 -> 602 ;
603 [label="MVA Norm <= -0.5\nmse = 0.0\nsamples = 12\nvalue = -0.0"] ;
565 -> 603 ;
604 [label="mse = 0.0\nsamples = 1\nvalue = 0.0"] ;
603 -> 604 ;
605 [label="Mom_10 <= 0.1\nmse = 0.0\nsamples = 11\nvalue = -0.0"] ;
603 -> 605 ;
606 [label="Mom_05 <= 0.0\nmse = 0.0\nsamples = 9\nvalue = -0.0"] ;
605 -> 606 ;
607 [label="Mom_01 <= 0.0\nmse = 0.0\nsamples = 3\nvalue = -0.0"] ;
606 -> 607 ;
608 [label="mse = 0.0\nsamples = 1\nvalue = -0.1"] ;
607 -> 608 ;
609 [label="Mom_10 <= 0.0\nmse = 0.0\nsamples = 2\nvalue = -0.0"] ;
607 -> 609 ;
610 [label="mse = 0.0\nsamples = 1\nvalue = -0.0"] ;
609 -> 610 ;
611 [label="mse = 0.0\nsamples = 1\nvalue = -0.0"] ;
609 -> 611 ;
612 [label="Mom_10 <= 0.0\nmse = 0.0\nsamples = 6\nvalue = -0.0"] ;
606 -> 612 ;
613 [label="Mom_10 <= 0.0\nmse = 0.0\nsamples = 4\nvalue = -0.0"] ;
612 -> 613 ;
614 [label="mse = 0.0\nsamples = 3\nvalue = -0.0"] ;
613 -> 614 ;
615 [label="mse = 0.0\nsamples = 1\nvalue = -0.0"] ;
613 -> 615 ;
616 [label="MVA Norm <= 0.4\nmse = 0.0\nsamples = 2\nvalue = -0.0"] ;
612 -> 616 ;
617 [label="mse = 0.0\nsamples = 1\nvalue = -0.0"] ;
616 -> 617 ;
618 [label="mse = 0.0\nsamples = 1\nvalue = -0.0"] ;
616 -> 618 ;
619 [label="Mom_10 <= 0.1\nmse = 0.0\nsamples = 2\nvalue = -0.0"] ;
605 -> 619 ;
620 [label="mse = 0.0\nsamples = 1\nvalue = -0.0"] ;
619 -> 620 ;
621 [label="mse = 0.0\nsamples = 1\nvalue = -0.0"] ;
619 -> 621 ;
622 [label="Mom_01 <= -0.0\nmse = 0.0\nsamples = 39\nvalue = 0.0"] ;
564 -> 622 ;
623 [label="mse = 0.0\nsamples = 1\nvalue = -0.1"] ;
622 -> 623 ;
624 [label="MVA Norm <= -0.4\nmse = 0.0\nsamples = 38\nvalue = 0.0"] ;
622 -> 624 ;
625 [label="MVA Norm <= -0.6\nmse = 0.0\nsamples = 3\nvalue = 0.0"] ;
624 -> 625 ;
626 [label="mse = 0.0\nsamples = 1\nvalue = -0.0"] ;
625 -> 626 ;
627 [label="Mom_01 <= -0.0\nmse = 0.0\nsamples = 2\nvalue = 0.0"] ;
625 -> 627 ;
628 [label="mse = 0.0\nsamples = 1\nvalue = 0.0"] ;
627 -> 628 ;
629 [label="mse = 0.0\nsamples = 1\nvalue = 0.0"] ;
627 -> 629 ;
630 [label="MVA Norm <= -0.3\nmse = 0.0\nsamples = 35\nvalue = 0.0"] ;
624 -> 630 ;
631 [label="Mom_20 <= 0.1\nmse = 0.0\nsamples = 2\nvalue = -0.0"] ;
630 -> 631 ;
632 [label="mse = 0.0\nsamples = 1\nvalue = -0.0"] ;
631 -> 632 ;
633 [label="mse = -0.0\nsamples = 1\nvalue = -0.0"] ;
631 -> 633 ;
634 [label="Mom_05 <= 0.0\nmse = 0.0\nsamples = 33\nvalue = 0.0"] ;
630 -> 634 ;
635 [label="Mom_20 <= 0.1\nmse = 0.0\nsamples = 10\nvalue = 0.0"] ;
634 -> 635 ;
636 [label="MVA Norm <= 0.3\nmse = 0.0\nsamples = 9\nvalue = 0.0"] ;
635 -> 636 ;
637 [label="Mom_20 <= 0.1\nmse = 0.0\nsamples = 5\nvalue = 0.0"] ;
636 -> 637 ;
638 [label="Mom_05 <= -0.0\nmse = 0.0\nsamples = 3\nvalue = 0.0"] ;
637 -> 638 ;
639 [label="mse = 0.0\nsamples = 1\nvalue = 0.0"] ;
638 -> 639 ;
640 [label="Mom_20 <= 0.1\nmse = 0.0\nsamples = 2\nvalue = 0.0"] ;
638 -> 640 ;
641 [label="mse = 0.0\nsamples = 1\nvalue = 0.0"] ;
640 -> 641 ;
642 [label="mse = -0.0\nsamples = 1\nvalue = 0.0"] ;
640 -> 642 ;
643 [label="Mom_10 <= 0.1\nmse = 0.0\nsamples = 2\nvalue = 0.0"] ;
637 -> 643 ;
644 [label="mse = 0.0\nsamples = 1\nvalue = 0.0"] ;
643 -> 644 ;
645 [label="mse = 0.0\nsamples = 1\nvalue = 0.0"] ;
643 -> 645 ;
646 [label="Mom_01 <= 0.0\nmse = 0.0\nsamples = 4\nvalue = 0.0"] ;
636 -> 646 ;
647 [label="mse = 0.0\nsamples = 1\nvalue = 0.0"] ;
646 -> 647 ;
648 [label="Mom_10 <= 0.0\nmse = 0.0\nsamples = 3\nvalue = 0.0"] ;
646 -> 648 ;
649 [label="Mom_20 <= 0.1\nmse = 0.0\nsamples = 2\nvalue = 0.0"] ;
648 -> 649 ;
650 [label="mse = 0.0\nsamples = 1\nvalue = 0.0"] ;
649 -> 650 ;
651 [label="mse = -0.0\nsamples = 1\nvalue = 0.0"] ;
649 -> 651 ;
652 [label="mse = -0.0\nsamples = 1\nvalue = 0.0"] ;
648 -> 652 ;
653 [label="mse = 0.0\nsamples = 1\nvalue = -0.0"] ;
635 -> 653 ;
654 [label="Mom_10 <= 0.0\nmse = 0.0\nsamples = 23\nvalue = -0.0"] ;
634 -> 654 ;
655 [label="MVA Norm <= -0.1\nmse = 0.0\nsamples = 12\nvalue = -0.0"] ;
654 -> 655 ;
656 [label="mse = 0.0\nsamples = 1\nvalue = 0.0"] ;
655 -> 656 ;
657 [label="Mom_20 <= 0.1\nmse = 0.0\nsamples = 11\nvalue = -0.0"] ;
655 -> 657 ;
658 [label="Mom_10 <= 0.0\nmse = 0.0\nsamples = 3\nvalue = -0.0"] ;
657 -> 658 ;
659 [label="MVA Norm <= -0.0\nmse = 0.0\nsamples = 2\nvalue = -0.0"] ;
658 -> 659 ;
660 [label="mse = 0.0\nsamples = 1\nvalue = -0.0"] ;
659 -> 660 ;
661 [label="mse = 0.0\nsamples = 1\nvalue = -0.0"] ;
659 -> 661 ;
662 [label="mse = -0.0\nsamples = 1\nvalue = -0.0"] ;
658 -> 662 ;
663 [label="Mom_05 <= 0.0\nmse = 0.0\nsamples = 8\nvalue = -0.0"] ;
657 -> 663 ;
664 [label="Mom_05 <= 0.0\nmse = 0.0\nsamples = 2\nvalue = -0.0"] ;
663 -> 664 ;
665 [label="mse = 0.0\nsamples = 1\nvalue = -0.0"] ;
664 -> 665 ;
666 [label="mse = -0.0\nsamples = 1\nvalue = -0.0"] ;
664 -> 666 ;
667 [label="MVA Norm <= 0.8\nmse = 0.0\nsamples = 6\nvalue = -0.0"] ;
663 -> 667 ;
668 [label="Mom_05 <= 0.0\nmse = 0.0\nsamples = 5\nvalue = -0.0"] ;
667 -> 668 ;
669 [label="mse = 0.0\nsamples = 2\nvalue = -0.0"] ;
668 -> 669 ;
670 [label="MVA Norm <= 0.2\nmse = 0.0\nsamples = 3\nvalue = -0.0"] ;
668 -> 670 ;
671 [label="mse = 0.0\nsamples = 1\nvalue = -0.0"] ;
670 -> 671 ;
672 [label="Mom_10 <= 0.0\nmse = 0.0\nsamples = 2\nvalue = -0.0"] ;
670 -> 672 ;
673 [label="mse = 0.0\nsamples = 1\nvalue = -0.0"] ;
672 -> 673 ;
674 [label="mse = 0.0\nsamples = 1\nvalue = -0.0"] ;
672 -> 674 ;
675 [label="mse = -0.0\nsamples = 1\nvalue = -0.0"] ;
667 -> 675 ;
676 [label="Mom_05 <= 0.0\nmse = 0.0\nsamples = 11\nvalue = 0.0"] ;
654 -> 676 ;
677 [label="Mom_20 <= 0.1\nmse = 0.0\nsamples = 10\nvalue = 0.0"] ;
676 -> 677 ;
678 [label="Mom_10 <= 0.1\nmse = 0.0\nsamples = 5\nvalue = -0.0"] ;
677 -> 678 ;
679 [label="MVA Norm <= 0.3\nmse = 0.0\nsamples = 4\nvalue = -0.0"] ;
678 -> 679 ;
680 [label="Mom_05 <= 0.0\nmse = 0.0\nsamples = 2\nvalue = -0.0"] ;
679 -> 680 ;
681 [label="mse = 0.0\nsamples = 1\nvalue = -0.0"] ;
680 -> 681 ;
682 [label="mse = 0.0\nsamples = 1\nvalue = -0.0"] ;
680 -> 682 ;
683 [label="Mom_01 <= 0.0\nmse = 0.0\nsamples = 2\nvalue = -0.0"] ;
679 -> 683 ;
684 [label="mse = 0.0\nsamples = 1\nvalue = -0.0"] ;
683 -> 684 ;
685 [label="mse = 0.0\nsamples = 1\nvalue = -0.0"] ;
683 -> 685 ;
686 [label="mse = 0.0\nsamples = 1\nvalue = 0.0"] ;
678 -> 686 ;
687 [label="Mom_20 <= 0.1\nmse = 0.0\nsamples = 5\nvalue = 0.0"] ;
677 -> 687 ;
688 [label="Mom_20 <= 0.1\nmse = 0.0\nsamples = 3\nvalue = 0.0"] ;
687 -> 688 ;
689 [label="mse = 0.0\nsamples = 1\nvalue = 0.0"] ;
688 -> 689 ;
690 [label="Mom_20 <= 0.1\nmse = 0.0\nsamples = 2\nvalue = 0.0"] ;
688 -> 690 ;
691 [label="mse = 0.0\nsamples = 1\nvalue = 0.0"] ;
690 -> 691 ;
692 [label="mse = 0.0\nsamples = 1\nvalue = 0.0"] ;
690 -> 692 ;
693 [label="Mom_20 <= 0.1\nmse = 0.0\nsamples = 2\nvalue = 0.0"] ;
687 -> 693 ;
694 [label="mse = 0.0\nsamples = 1\nvalue = 0.0"] ;
693 -> 694 ;
695 [label="mse = -0.0\nsamples = 1\nvalue = 0.0"] ;
693 -> 695 ;
696 [label="mse = 0.0\nsamples = 1\nvalue = -0.0"] ;
676 -> 696 ;
697 [label="MVA Norm <= 0.6\nmse = 0.0\nsamples = 19\nvalue = 0.0"] ;
563 -> 697 ;
698 [label="Mom_10 <= 0.1\nmse = 0.0\nsamples = 14\nvalue = 0.0"] ;
697 -> 698 ;
699 [label="MVA Norm <= 0.4\nmse = 0.0\nsamples = 10\nvalue = 0.0"] ;
698 -> 699 ;
700 [label="Mom_05 <= 0.0\nmse = 0.0\nsamples = 3\nvalue = -0.0"] ;
699 -> 700 ;
701 [label="mse = 0.0\nsamples = 1\nvalue = -0.0"] ;
700 -> 701 ;
702 [label="Mom_20 <= 0.0\nmse = 0.0\nsamples = 2\nvalue = -0.0"] ;
700 -> 702 ;
703 [label="mse = 0.0\nsamples = 1\nvalue = -0.0"] ;
702 -> 703 ;
704 [label="mse = 0.0\nsamples = 1\nvalue = -0.0"] ;
702 -> 704 ;
705 [label="Mom_10 <= 0.1\nmse = 0.0\nsamples = 7\nvalue = 0.0"] ;
699 -> 705 ;
706 [label="Mom_20 <= 0.0\nmse = 0.0\nsamples = 6\nvalue = 0.0"] ;
705 -> 706 ;
707 [label="mse = 0.0\nsamples = 1\nvalue = -0.0"] ;
706 -> 707 ;
708 [label="MVA Norm <= 0.4\nmse = 0.0\nsamples = 5\nvalue = 0.0"] ;
706 -> 708 ;
709 [label="mse = 0.0\nsamples = 1\nvalue = 0.0"] ;
708 -> 709 ;
710 [label="Mom_05 <= 0.0\nmse = 0.0\nsamples = 4\nvalue = 0.0"] ;
708 -> 710 ;
711 [label="mse = 0.0\nsamples = 2\nvalue = 0.0"] ;
710 -> 711 ;
712 [label="mse = 0.0\nsamples = 2\nvalue = 0.0"] ;
710 -> 712 ;
713 [label="mse = 0.0\nsamples = 1\nvalue = -0.0"] ;
705 -> 713 ;
714 [label="Mom_20 <= 0.0\nmse = 0.0\nsamples = 4\nvalue = 0.0"] ;
698 -> 714 ;
715 [label="Mom_05 <= 0.0\nmse = 0.0\nsamples = 2\nvalue = 0.0"] ;
714 -> 715 ;
716 [label="mse = 0.0\nsamples = 1\nvalue = 0.0"] ;
715 -> 716 ;
717 [label="mse = 0.0\nsamples = 1\nvalue = 0.0"] ;
715 -> 717 ;
718 [label="Mom_10 <= 0.1\nmse = 0.0\nsamples = 2\nvalue = 0.1"] ;
714 -> 718 ;
719 [label="mse = 0.0\nsamples = 1\nvalue = 0.1"] ;
718 -> 719 ;
720 [label="mse = 0.0\nsamples = 1\nvalue = 0.1"] ;
718 -> 720 ;
721 [label="Mom_05 <= 0.0\nmse = 0.0\nsamples = 5\nvalue = -0.0"] ;
697 -> 721 ;
722 [label="Mom_05 <= 0.0\nmse = 0.0\nsamples = 4\nvalue = -0.0"] ;
721 -> 722 ;
723 [label="mse = 0.0\nsamples = 1\nvalue = 0.0"] ;
722 -> 723 ;
724 [label="Mom_10 <= 0.1\nmse = 0.0\nsamples = 3\nvalue = -0.0"] ;
722 -> 724 ;
725 [label="mse = 0.0\nsamples = 2\nvalue = -0.0"] ;
724 -> 725 ;
726 [label="mse = 0.0\nsamples = 1\nvalue = -0.0"] ;
724 -> 726 ;
727 [label="mse = -0.0\nsamples = 1\nvalue = 0.0"] ;
721 -> 727 ;
728 [label="Mom_20 <= -0.1\nmse = 0.0\nsamples = 101\nvalue = -0.0"] ;
2 -> 728 ;
729 [label="Mom_05 <= 0.2\nmse = 0.0\nsamples = 6\nvalue = -0.1"] ;
728 -> 729 ;
730 [label="Mom_05 <= 0.1\nmse = 0.0\nsamples = 5\nvalue = -0.1"] ;
729 -> 730 ;
731 [label="Mom_01 <= 0.0\nmse = 0.0\nsamples = 4\nvalue = -0.1"] ;
730 -> 731 ;
732 [label="Mom_05 <= 0.1\nmse = 0.0\nsamples = 3\nvalue = -0.1"] ;
731 -> 732 ;
733 [label="Mom_20 <= -0.1\nmse = 0.0\nsamples = 2\nvalue = -0.1"] ;
732 -> 733 ;
734 [label="mse = 0.0\nsamples = 1\nvalue = -0.1"] ;
733 -> 734 ;
735 [label="mse = 0.0\nsamples = 1\nvalue = -0.1"] ;
733 -> 735 ;
736 [label="mse = 0.0\nsamples = 1\nvalue = -0.1"] ;
732 -> 736 ;
737 [label="mse = 0.0\nsamples = 1\nvalue = -0.1"] ;
731 -> 737 ;
738 [label="mse = 0.0\nsamples = 1\nvalue = -0.0"] ;
730 -> 738 ;
739 [label="mse = 0.0\nsamples = 1\nvalue = -0.1"] ;
729 -> 739 ;
740 [label="Mom_20 <= -0.0\nmse = 0.0\nsamples = 95\nvalue = -0.0"] ;
728 -> 740 ;
741 [label="Mom_01 <= 0.0\nmse = 0.0\nsamples = 11\nvalue = 0.0"] ;
740 -> 741 ;
742 [label="Mom_05 <= 0.0\nmse = 0.0\nsamples = 4\nvalue = 0.0"] ;
741 -> 742 ;
743 [label="Mom_05 <= 0.0\nmse = 0.0\nsamples = 3\nvalue = 0.0"] ;
742 -> 743 ;
744 [label="mse = 0.0\nsamples = 1\nvalue = 0.1"] ;
743 -> 744 ;
745 [label="Mom_10 <= -0.0\nmse = 0.0\nsamples = 2\nvalue = 0.0"] ;
743 -> 745 ;
746 [label="mse = 0.0\nsamples = 1\nvalue = 0.0"] ;
745 -> 746 ;
747 [label="mse = -0.0\nsamples = 1\nvalue = 0.0"] ;
745 -> 747 ;
748 [label="mse = -0.0\nsamples = 1\nvalue = 0.0"] ;
742 -> 748 ;
749 [label="Mom_10 <= -0.0\nmse = 0.0\nsamples = 7\nvalue = -0.0"] ;
741 -> 749 ;
750 [label="Mom_05 <= 0.0\nmse = 0.0\nsamples = 2\nvalue = -0.0"] ;
749 -> 750 ;
751 [label="mse = 0.0\nsamples = 1\nvalue = -0.0"] ;
750 -> 751 ;
752 [label="mse = 0.0\nsamples = 1\nvalue = -0.0"] ;
750 -> 752 ;
753 [label="Mom_10 <= 0.0\nmse = 0.0\nsamples = 5\nvalue = 0.0"] ;
749 -> 753 ;
754 [label="Mom_20 <= -0.0\nmse = 0.0\nsamples = 2\nvalue = 0.0"] ;
753 -> 754 ;
755 [label="mse = 0.0\nsamples = 1\nvalue = 0.0"] ;
754 -> 755 ;
756 [label="mse = 0.0\nsamples = 1\nvalue = 0.0"] ;
754 -> 756 ;
757 [label="Mom_10 <= 0.1\nmse = 0.0\nsamples = 3\nvalue = -0.0"] ;
753 -> 757 ;
758 [label="Mom_10 <= 0.1\nmse = 0.0\nsamples = 2\nvalue = -0.0"] ;
757 -> 758 ;
759 [label="mse = 0.0\nsamples = 1\nvalue = -0.0"] ;
758 -> 759 ;
760 [label="mse = -0.0\nsamples = 1\nvalue = -0.0"] ;
758 -> 760 ;
761 [label="mse = 0.0\nsamples = 1\nvalue = 0.0"] ;
757 -> 761 ;
762 [label="Mom_20 <= -0.0\nmse = 0.0\nsamples = 84\nvalue = -0.0"] ;
740 -> 762 ;
763 [label="Mom_10 <= -0.0\nmse = 0.0\nsamples = 3\nvalue = -0.1"] ;
762 -> 763 ;
764 [label="mse = 0.0\nsamples = 1\nvalue = -0.1"] ;
763 -> 764 ;
765 [label="MVA Norm <= 0.5\nmse = 0.0\nsamples = 2\nvalue = -0.1"] ;
763 -> 765 ;
766 [label="mse = 0.0\nsamples = 1\nvalue = -0.1"] ;
765 -> 766 ;
767 [label="mse = 0.0\nsamples = 1\nvalue = -0.1"] ;
765 -> 767 ;
768 [label="MVA Norm <= 0.7\nmse = 0.0\nsamples = 81\nvalue = -0.0"] ;
762 -> 768 ;
769 [label="Mom_10 <= 0.0\nmse = 0.0\nsamples = 64\nvalue = -0.0"] ;
768 -> 769 ;
770 [label="Mom_20 <= 0.1\nmse = 0.0\nsamples = 11\nvalue = 0.0"] ;
769 -> 770 ;
771 [label="Mom_01 <= -0.0\nmse = 0.0\nsamples = 10\nvalue = 0.0"] ;
770 -> 771 ;
772 [label="Mom_05 <= 0.0\nmse = 0.0\nsamples = 3\nvalue = 0.0"] ;
771 -> 772 ;
773 [label="mse = -0.0\nsamples = 1\nvalue = 0.0"] ;
772 -> 773 ;
774 [label="MVA Norm <= -0.0\nmse = 0.0\nsamples = 2\nvalue = 0.0"] ;
772 -> 774 ;
775 [label="mse = 0.0\nsamples = 1\nvalue = 0.0"] ;
774 -> 775 ;
776 [label="mse = -0.0\nsamples = 1\nvalue = 0.0"] ;
774 -> 776 ;
777 [label="Mom_05 <= 0.0\nmse = 0.0\nsamples = 7\nvalue = 0.0"] ;
771 -> 777 ;
778 [label="Mom_10 <= -0.0\nmse = 0.0\nsamples = 2\nvalue = -0.0"] ;
777 -> 778 ;
779 [label="mse = 0.0\nsamples = 1\nvalue = -0.0"] ;
778 -> 779 ;
780 [label="mse = 0.0\nsamples = 1\nvalue = -0.0"] ;
778 -> 780 ;
781 [label="Mom_10 <= -0.0\nmse = 0.0\nsamples = 5\nvalue = 0.0"] ;
777 -> 781 ;
782 [label="Mom_10 <= -0.0\nmse = 0.0\nsamples = 3\nvalue = 0.0"] ;
781 -> 782 ;
783 [label="mse = 0.0\nsamples = 1\nvalue = 0.0"] ;
782 -> 783 ;
784 [label="MVA Norm <= 0.5\nmse = 0.0\nsamples = 2\nvalue = 0.0"] ;
782 -> 784 ;
785 [label="mse = 0.0\nsamples = 1\nvalue = 0.0"] ;
784 -> 785 ;
786 [label="mse = -0.0\nsamples = 1\nvalue = 0.0"] ;
784 -> 786 ;
787 [label="Mom_05 <= 0.0\nmse = 0.0\nsamples = 2\nvalue = 0.0"] ;
781 -> 787 ;
788 [label="mse = 0.0\nsamples = 1\nvalue = 0.0"] ;
787 -> 788 ;
789 [label="mse = -0.0\nsamples = 1\nvalue = 0.0"] ;
787 -> 789 ;
790 [label="mse = 0.0\nsamples = 1\nvalue = -0.1"] ;
770 -> 790 ;
791 [label="Mom_01 <= 0.0\nmse = 0.0\nsamples = 53\nvalue = -0.0"] ;
769 -> 791 ;
792 [label="Mom_05 <= 0.1\nmse = 0.0\nsamples = 18\nvalue = -0.0"] ;
791 -> 792 ;
793 [label="Mom_01 <= -0.0\nmse = 0.0\nsamples = 17\nvalue = -0.0"] ;
792 -> 793 ;
794 [label="Mom_20 <= 0.0\nmse = 0.0\nsamples = 13\nvalue = -0.0"] ;
793 -> 794 ;
795 [label="Mom_05 <= 0.0\nmse = 0.0\nsamples = 2\nvalue = -0.1"] ;
794 -> 795 ;
796 [label="mse = 0.0\nsamples = 1\nvalue = -0.0"] ;
795 -> 796 ;
797 [label="mse = 0.0\nsamples = 1\nvalue = -0.1"] ;
795 -> 797 ;
798 [label="Mom_10 <= 0.0\nmse = 0.0\nsamples = 11\nvalue = -0.0"] ;
794 -> 798 ;
799 [label="mse = 0.0\nsamples = 1\nvalue = 0.0"] ;
798 -> 799 ;
800 [label="Mom_01 <= -0.0\nmse = 0.0\nsamples = 10\nvalue = -0.0"] ;
798 -> 800 ;
801 [label="Mom_01 <= -0.0\nmse = 0.0\nsamples = 4\nvalue = -0.0"] ;
800 -> 801 ;
802 [label="MVA Norm <= 0.1\nmse = 0.0\nsamples = 3\nvalue = -0.0"] ;
801 -> 802 ;
803 [label="Mom_10 <= 0.1\nmse = 0.0\nsamples = 2\nvalue = -0.0"] ;
802 -> 803 ;
804 [label="mse = 0.0\nsamples = 1\nvalue = -0.0"] ;
803 -> 804 ;
805 [label="mse = 0.0\nsamples = 1\nvalue = -0.0"] ;
803 -> 805 ;
806 [label="mse = 0.0\nsamples = 1\nvalue = -0.0"] ;
802 -> 806 ;
807 [label="mse = -0.0\nsamples = 1\nvalue = -0.1"] ;
801 -> 807 ;
808 [label="MVA Norm <= 0.2\nmse = 0.0\nsamples = 6\nvalue = -0.0"] ;
800 -> 808 ;
809 [label="Mom_01 <= -0.0\nmse = 0.0\nsamples = 2\nvalue = -0.0"] ;
808 -> 809 ;
810 [label="mse = 0.0\nsamples = 1\nvalue = -0.0"] ;
809 -> 810 ;
811 [label="mse = 0.0\nsamples = 1\nvalue = -0.0"] ;
809 -> 811 ;
812 [label="Mom_01 <= -0.0\nmse = 0.0\nsamples = 4\nvalue = -0.0"] ;
808 -> 812 ;
813 [label="Mom_10 <= 0.0\nmse = 0.0\nsamples = 2\nvalue = -0.0"] ;
812 -> 813 ;
814 [label="mse = 0.0\nsamples = 1\nvalue = -0.0"] ;
813 -> 814 ;
815 [label="mse = 0.0\nsamples = 1\nvalue = -0.0"] ;
813 -> 815 ;
816 [label="Mom_20 <= 0.1\nmse = 0.0\nsamples = 2\nvalue = -0.0"] ;
812 -> 816 ;
817 [label="mse = 0.0\nsamples = 1\nvalue = -0.0"] ;
816 -> 817 ;
818 [label="mse = 0.0\nsamples = 1\nvalue = -0.0"] ;
816 -> 818 ;
819 [label="MVA Norm <= 0.1\nmse = 0.0\nsamples = 4\nvalue = -0.0"] ;
793 -> 819 ;
820 [label="mse = 0.0\nsamples = 1\nvalue = -0.1"] ;
819 -> 820 ;
821 [label="Mom_20 <= 0.1\nmse = 0.0\nsamples = 3\nvalue = -0.0"] ;
819 -> 821 ;
822 [label="Mom_01 <= -0.0\nmse = 0.0\nsamples = 2\nvalue = -0.0"] ;
821 -> 822 ;
823 [label="mse = 0.0\nsamples = 1\nvalue = -0.0"] ;
822 -> 823 ;
824 [label="mse = 0.0\nsamples = 1\nvalue = -0.0"] ;
822 -> 824 ;
825 [label="mse = 0.0\nsamples = 1\nvalue = -0.0"] ;
821 -> 825 ;
826 [label="mse = -0.0\nsamples = 1\nvalue = 0.0"] ;
792 -> 826 ;
827 [label="MVA Norm <= 0.7\nmse = 0.0\nsamples = 35\nvalue = 0.0"] ;
791 -> 827 ;
828 [label="MVA Norm <= 0.5\nmse = 0.0\nsamples = 26\nvalue = -0.0"] ;
827 -> 828 ;
829 [label="Mom_01 <= 0.0\nmse = 0.0\nsamples = 8\nvalue = 0.0"] ;
828 -> 829 ;
830 [label="MVA Norm <= 0.4\nmse = 0.0\nsamples = 2\nvalue = 0.0"] ;
829 -> 830 ;
831 [label="mse = 0.0\nsamples = 1\nvalue = 0.0"] ;
830 -> 831 ;
832 [label="mse = 0.0\nsamples = 1\nvalue = 0.0"] ;
830 -> 832 ;
833 [label="Mom_10 <= 0.1\nmse = 0.0\nsamples = 6\nvalue = 0.0"] ;
829 -> 833 ;
834 [label="Mom_10 <= 0.1\nmse = 0.0\nsamples = 5\nvalue = 0.0"] ;
833 -> 834 ;
835 [label="Mom_20 <= 0.1\nmse = 0.0\nsamples = 3\nvalue = 0.0"] ;
834 -> 835 ;
836 [label="Mom_10 <= 0.0\nmse = 0.0\nsamples = 2\nvalue = 0.0"] ;
835 -> 836 ;
837 [label="mse = 0.0\nsamples = 1\nvalue = 0.0"] ;
836 -> 837 ;
838 [label="mse = 0.0\nsamples = 1\nvalue = 0.0"] ;
836 -> 838 ;
839 [label="mse = 0.0\nsamples = 1\nvalue = 0.0"] ;
835 -> 839 ;
840 [label="Mom_10 <= 0.1\nmse = 0.0\nsamples = 2\nvalue = -0.0"] ;
834 -> 840 ;
841 [label="mse = 0.0\nsamples = 1\nvalue = -0.0"] ;
840 -> 841 ;
842 [label="mse = 0.0\nsamples = 1\nvalue = -0.0"] ;
840 -> 842 ;
843 [label="mse = 0.0\nsamples = 1\nvalue = 0.0"] ;
833 -> 843 ;
844 [label="MVA Norm <= 0.5\nmse = 0.0\nsamples = 18\nvalue = -0.0"] ;
828 -> 844 ;
845 [label="Mom_20 <= 0.1\nmse = 0.0\nsamples = 2\nvalue = -0.0"] ;
844 -> 845 ;
846 [label="mse = 0.0\nsamples = 1\nvalue = -0.0"] ;
845 -> 846 ;
847 [label="mse = 0.0\nsamples = 1\nvalue = -0.1"] ;
845 -> 847 ;
848 [label="Mom_05 <= 0.1\nmse = 0.0\nsamples = 16\nvalue = -0.0"] ;
844 -> 848 ;
849 [label="Mom_10 <= 0.1\nmse = 0.0\nsamples = 13\nvalue = -0.0"] ;
848 -> 849 ;
850 [label="Mom_05 <= 0.0\nmse = 0.0\nsamples = 9\nvalue = -0.0"] ;
849 -> 850 ;
851 [label="Mom_05 <= 0.0\nmse = 0.0\nsamples = 2\nvalue = -0.0"] ;
850 -> 851 ;
852 [label="mse = 0.0\nsamples = 1\nvalue = -0.0"] ;
851 -> 852 ;
853 [label="mse = 0.0\nsamples = 1\nvalue = -0.0"] ;
851 -> 853 ;
854 [label="Mom_01 <= 0.0\nmse = 0.0\nsamples = 7\nvalue = -0.0"] ;
850 -> 854 ;
855 [label="Mom_20 <= 0.0\nmse = 0.0\nsamples = 4\nvalue = -0.0"] ;
854 -> 855 ;
856 [label="MVA Norm <= 0.6\nmse = 0.0\nsamples = 2\nvalue = -0.0"] ;
855 -> 856 ;
857 [label="mse = 0.0\nsamples = 1\nvalue = -0.0"] ;
856 -> 857 ;
858 [label="mse = 0.0\nsamples = 1\nvalue = -0.0"] ;
856 -> 858 ;
859 [label="MVA Norm <= 0.5\nmse = 0.0\nsamples = 2\nvalue = 0.0"] ;
855 -> 859 ;
860 [label="mse = 0.0\nsamples = 1\nvalue = 0.0"] ;
859 -> 860 ;
861 [label="mse = 0.0\nsamples = 1\nvalue = 0.0"] ;
859 -> 861 ;
862 [label="MVA Norm <= 0.6\nmse = 0.0\nsamples = 3\nvalue = -0.0"] ;
854 -> 862 ;
863 [label="mse = 0.0\nsamples = 1\nvalue = -0.0"] ;
862 -> 863 ;
864 [label="Mom_05 <= 0.0\nmse = 0.0\nsamples = 2\nvalue = -0.0"] ;
862 -> 864 ;
865 [label="mse = 0.0\nsamples = 1\nvalue = -0.0"] ;
864 -> 865 ;
866 [label="mse = -0.0\nsamples = 1\nvalue = -0.0"] ;
864 -> 866 ;
867 [label="Mom_01 <= 0.0\nmse = 0.0\nsamples = 4\nvalue = 0.0"] ;
849 -> 867 ;
868 [label="Mom_05 <= 0.0\nmse = 0.0\nsamples = 2\nvalue = 0.0"] ;
867 -> 868 ;
869 [label="mse = 0.0\nsamples = 1\nvalue = 0.0"] ;
868 -> 869 ;
870 [label="mse = -0.0\nsamples = 1\nvalue = 0.0"] ;
868 -> 870 ;
871 [label="Mom_05 <= 0.0\nmse = 0.0\nsamples = 2\nvalue = 0.0"] ;
867 -> 871 ;
872 [label="mse = 0.0\nsamples = 1\nvalue = 0.0"] ;
871 -> 872 ;
873 [label="mse = 0.0\nsamples = 1\nvalue = 0.0"] ;
871 -> 873 ;
874 [label="Mom_10 <= 0.1\nmse = 0.0\nsamples = 3\nvalue = -0.0"] ;
848 -> 874 ;
875 [label="Mom_10 <= 0.1\nmse = 0.0\nsamples = 2\nvalue = -0.0"] ;
874 -> 875 ;
876 [label="mse = 0.0\nsamples = 1\nvalue = -0.0"] ;
875 -> 876 ;
877 [label="mse = 0.0\nsamples = 1\nvalue = -0.0"] ;
875 -> 877 ;
878 [label="mse = 0.0\nsamples = 1\nvalue = -0.0"] ;
874 -> 878 ;
879 [label="Mom_01 <= 0.0\nmse = 0.0\nsamples = 9\nvalue = 0.0"] ;
827 -> 879 ;
880 [label="Mom_01 <= 0.0\nmse = 0.0\nsamples = 4\nvalue = -0.0"] ;
879 -> 880 ;
881 [label="mse = 0.0\nsamples = 1\nvalue = 0.0"] ;
880 -> 881 ;
882 [label="Mom_10 <= 0.0\nmse = 0.0\nsamples = 3\nvalue = -0.0"] ;
880 -> 882 ;
883 [label="MVA Norm <= 0.7\nmse = 0.0\nsamples = 2\nvalue = -0.0"] ;
882 -> 883 ;
884 [label="mse = 0.0\nsamples = 1\nvalue = -0.0"] ;
883 -> 884 ;
885 [label="mse = 0.0\nsamples = 1\nvalue = -0.0"] ;
883 -> 885 ;
886 [label="mse = -0.0\nsamples = 1\nvalue = -0.0"] ;
882 -> 886 ;
887 [label="Mom_10 <= 0.1\nmse = 0.0\nsamples = 5\nvalue = 0.0"] ;
879 -> 887 ;
888 [label="Mom_10 <= 0.1\nmse = 0.0\nsamples = 3\nvalue = 0.0"] ;
887 -> 888 ;
889 [label="mse = 0.0\nsamples = 2\nvalue = 0.1"] ;
888 -> 889 ;
890 [label="mse = 0.0\nsamples = 1\nvalue = 0.0"] ;
888 -> 890 ;
891 [label="Mom_20 <= 0.1\nmse = 0.0\nsamples = 2\nvalue = 0.0"] ;
887 -> 891 ;
892 [label="mse = 0.0\nsamples = 1\nvalue = -0.0"] ;
891 -> 892 ;
893 [label="mse = 0.0\nsamples = 1\nvalue = 0.0"] ;
891 -> 893 ;
894 [label="Mom_01 <= 0.1\nmse = 0.0\nsamples = 17\nvalue = -0.0"] ;
768 -> 894 ;
895 [label="MVA Norm <= 0.8\nmse = 0.0\nsamples = 16\nvalue = -0.0"] ;
894 -> 895 ;
896 [label="Mom_01 <= 0.0\nmse = 0.0\nsamples = 2\nvalue = -0.1"] ;
895 -> 896 ;
897 [label="mse = 0.0\nsamples = 1\nvalue = -0.1"] ;
896 -> 897 ;
898 [label="mse = 0.0\nsamples = 1\nvalue = -0.1"] ;
896 -> 898 ;
899 [label="Mom_20 <= 0.1\nmse = 0.0\nsamples = 14\nvalue = -0.0"] ;
895 -> 899 ;
900 [label="Mom_05 <= 0.0\nmse = 0.0\nsamples = 11\nvalue = -0.0"] ;
899 -> 900 ;
901 [label="Mom_20 <= 0.1\nmse = 0.0\nsamples = 6\nvalue = -0.0"] ;
900 -> 901 ;
902 [label="MVA Norm <= 0.8\nmse = 0.0\nsamples = 5\nvalue = -0.0"] ;
901 -> 902 ;
903 [label="mse = 0.0\nsamples = 1\nvalue = -0.0"] ;
902 -> 903 ;
904 [label="MVA Norm <= 0.8\nmse = 0.0\nsamples = 4\nvalue = -0.0"] ;
902 -> 904 ;
905 [label="mse = 0.0\nsamples = 2\nvalue = -0.0"] ;
904 -> 905 ;
906 [label="Mom_01 <= 0.0\nmse = 0.0\nsamples = 2\nvalue = -0.0"] ;
904 -> 906 ;
907 [label="mse = 0.0\nsamples = 1\nvalue = -0.0"] ;
906 -> 907 ;
908 [label="mse = 0.0\nsamples = 1\nvalue = -0.0"] ;
906 -> 908 ;
909 [label="mse = 0.0\nsamples = 1\nvalue = 0.0"] ;
901 -> 909 ;
910 [label="Mom_01 <= 0.0\nmse = 0.0\nsamples = 5\nvalue = -0.0"] ;
900 -> 910 ;
911 [label="Mom_10 <= 0.0\nmse = 0.0\nsamples = 3\nvalue = -0.0"] ;
910 -> 911 ;
912 [label="mse = 0.0\nsamples = 2\nvalue = -0.0"] ;
911 -> 912 ;
913 [label="mse = -0.0\nsamples = 1\nvalue = -0.0"] ;
911 -> 913 ;
914 [label="MVA Norm <= 0.8\nmse = 0.0\nsamples = 2\nvalue = -0.0"] ;
910 -> 914 ;
915 [label="mse = 0.0\nsamples = 1\nvalue = -0.0"] ;
914 -> 915 ;
916 [label="mse = 0.0\nsamples = 1\nvalue = -0.0"] ;
914 -> 916 ;
917 [label="Mom_10 <= 0.1\nmse = 0.0\nsamples = 3\nvalue = -0.0"] ;
899 -> 917 ;
918 [label="mse = 0.0\nsamples = 1\nvalue = -0.1"] ;
917 -> 918 ;
919 [label="Mom_10 <= 0.1\nmse = 0.0\nsamples = 2\nvalue = -0.0"] ;
917 -> 919 ;
920 [label="mse = 0.0\nsamples = 1\nvalue = -0.0"] ;
919 -> 920 ;
921 [label="mse = 0.0\nsamples = 1\nvalue = -0.0"] ;
919 -> 921 ;
922 [label="mse = -0.0\nsamples = 1\nvalue = 0.0"] ;
894 -> 922 ;
}